,0,1,2,3,4,5,6,7,8,9,10,11,12,13,14,15,16,17,18,19,20,21,22,23,24,25,26,27,28,29,30,31,32,33,34,35,36,37,38,39,40,41,42,43,44,45,46,47,48,49
the,0.418,0.2497,-0.41240000000000004,0.1217,0.3453,-0.044500000000000005,-0.4969,-0.1786,-0.0007,-0.6566000000000001,0.27840000000000004,-0.1477,-0.5568000000000001,0.1466,-0.0095,0.0117,0.10200000000000001,-0.1279,-0.8443,-0.1218,-0.016800000000000002,-0.33280000000000004,-0.1552,-0.2313,-0.1918,-1.8823,-0.7675000000000001,0.09910000000000001,-0.4212,-0.1953,4.0071,-0.1859,-0.5229,-0.3168,0.0006000000000000001,0.0074,0.1778,-0.159,0.012,-0.054200000000000005,-0.2987,-0.1575,-0.3476,-0.0456,-0.4425,0.18780000000000002,0.0028,-0.1841,-0.11510000000000001,-0.7858
",",0.0134,0.2368,-0.169,0.40950000000000003,0.6381,0.4771,-0.42850000000000005,-0.5564,-0.364,-0.2394,0.13,-0.0637,-0.39580000000000004,-0.48160000000000003,0.23290000000000002,0.0902,-0.1332,0.0786,-0.4163,-0.15430000000000002,0.10070000000000001,0.4889,0.3123,-0.1252,-0.0375,-1.5179,0.12610000000000002,-0.0244,-0.043000000000000003,-0.28350000000000003,3.5416,-0.11960000000000001,-0.0145,-0.1499,0.21860000000000002,-0.3341,-0.13870000000000002,0.3181,0.7036,0.4486,-0.08030000000000001,0.63,0.3211,-0.4676,0.22790000000000002,0.3603,-0.37820000000000004,-0.5666,0.044700000000000004,0.3039
.,0.1516,0.3018,-0.1676,0.1768,0.31720000000000004,0.3397,-0.4348,-0.3109,-0.45,-0.2949,0.1661,0.11960000000000001,-0.4133,-0.42350000000000004,0.5987,0.2882,-0.1155,-0.041800000000000004,-0.6799000000000001,-0.2506,0.1847,0.0869,0.46580000000000005,0.015,0.043500000000000004,-1.4671,-0.3038,-0.0234,0.3059,-0.21780000000000002,3.746,0.004200000000000001,-0.1844,-0.4621,0.0983,-0.11910000000000001,0.23920000000000002,0.11610000000000001,0.417,0.0568,-0.0001,0.069,0.0879,-0.1028,-0.1393,0.22310000000000002,-0.08080000000000001,-0.35650000000000004,0.0164,0.1022
of,0.7085,0.5709000000000001,-0.4716,0.18050000000000002,0.5445,0.726,0.1816,-0.5239,0.1038,-0.1757,0.0789,-0.3622,-0.1183,-0.8334,0.1192,-0.166,0.0616,-0.012700000000000001,-0.5662,0.013600000000000001,0.2285,-0.14400000000000002,-0.0675,-0.3816,-0.23700000000000002,-1.7037,-0.8669,-0.267,-0.2589,0.1767,3.8676,-0.1613,-0.1327,-0.6888000000000001,0.1844,0.005200000000000001,-0.3387,-0.079,0.24180000000000001,0.3658,-0.3473,0.2848,0.0757,-0.062200000000000005,-0.3899,0.229,-0.2162,-0.22560000000000002,-0.09390000000000001,-0.8038000000000001
to,0.6805,-0.0393,0.3019,-0.1779,0.42960000000000004,0.0322,-0.4138,0.1323,-0.2985,-0.0853,0.17120000000000002,0.2242,-0.1005,-0.4365,0.3342,0.6785,0.0572,-0.34450000000000003,-0.4278,-0.4328,0.5596,0.1003,0.18680000000000002,-0.2685,0.0373,-2.0932,0.2217,-0.3987,0.2091,-0.5572,3.8826,0.4747,-0.9566,-0.3779,0.2087,-0.3275,0.1275,0.0884,0.1635,-0.21630000000000002,-0.0944,0.0183,0.21050000000000002,-0.0309,-0.19720000000000001,0.0823,-0.09430000000000001,-0.0733,-0.06470000000000001,-0.2604
and,0.2682,0.14350000000000002,-0.2788,0.016300000000000002,0.11380000000000001,0.6992,-0.5133,-0.4737,-0.33080000000000004,-0.1383,0.2702,0.3094,-0.4501,-0.4127,-0.0993,0.0381,0.0297,0.1008,-0.2506,-0.5182,0.3456,0.44920000000000004,0.4879,-0.0809,-0.1012,-1.3777,-0.1087,-0.232,0.0128,-0.4651,3.8463000000000003,0.3136,0.1364,-0.5224,0.3302,0.3371,-0.356,0.32430000000000003,0.12040000000000001,0.3512,-0.069,0.3688,0.25170000000000003,-0.2452,0.2538,0.13670000000000002,-0.3118,-0.6321,-0.2503,-0.381
in,0.3304,0.25,-0.6087,0.1092,0.0364,0.151,-0.5508000000000001,-0.0742,-0.09230000000000001,-0.3282,0.096,-0.8227,-0.3672,-0.6701,0.42910000000000004,0.0165,-0.23570000000000002,0.12860000000000002,-1.0953,0.4333,0.5707,-0.10360000000000001,0.20420000000000002,0.07830000000000001,-0.428,-1.7984,-0.2786,0.11950000000000001,-0.1269,0.0317,3.8631,-0.1779,-0.0824,-0.627,0.265,-0.0572,-0.07350000000000001,0.461,0.30860000000000004,0.125,-0.48610000000000003,-0.008,0.031200000000000002,-0.3658,-0.427,0.42160000000000003,-0.11670000000000001,-0.507,-0.0273,-0.5329
a,0.217,0.4652,-0.4676,0.1008,1.0135,0.7484000000000001,-0.531,-0.2626,0.1681,0.1318,-0.24910000000000002,-0.4418,-0.2174,0.51,0.1345,-0.4314,-0.031200000000000002,0.20670000000000002,-0.7814,-0.2015,-0.0974,0.16090000000000002,-0.6184000000000001,-0.185,-0.1246,-2.2526,-0.2232,0.5043,0.3226,0.1531,3.9636,-0.7136,-0.6701,0.28390000000000004,0.2174,0.1443,0.25930000000000003,0.2343,0.4274,-0.4445,0.1381,0.36970000000000003,-0.6429,0.0241,-0.0393,-0.2604,0.1202,-0.0438,0.4101,0.1796
for,0.1527,0.3618,-0.2217,0.0661,0.1303,0.3708,-0.7587,-0.44720000000000004,0.22560000000000002,0.10210000000000001,0.054200000000000005,0.13490000000000002,-0.4305,-0.2134,0.5614,-0.2144,0.078,0.1014,-0.5131,-0.40290000000000004,0.40640000000000004,0.2331,0.20700000000000002,-0.1267,-0.5063,-1.7131,0.0772,-0.3914,-0.10590000000000001,-0.2374,3.9552,0.666,-0.6184000000000001,-0.32680000000000003,0.37020000000000003,0.2576,0.38980000000000004,0.2712,0.043000000000000003,-0.3432,0.020300000000000002,0.2142,0.0441,0.14,-0.2008,0.0748,-0.3608,0.4338,-0.08460000000000001,0.12140000000000001
that,0.8839,-0.14200000000000002,0.13570000000000002,0.09870000000000001,0.5122,0.4914,-0.4716,-0.3074,0.0196,0.1269,0.07350000000000001,0.3584,-0.6087,-0.18680000000000002,0.7894,0.5453,0.1106,-0.2923,0.059000000000000004,-0.6955,-0.188,0.19460000000000002,0.32270000000000004,-0.4998,0.306,-2.3902,-0.6075,0.37110000000000004,0.0789,-0.23900000000000002,3.839,-0.2036,-0.3561,-0.6918000000000001,-0.17500000000000002,-0.3532,0.106,-0.0393,0.015700000000000002,0.0383,-0.3528,0.44880000000000003,-0.1653,0.3158,0.1496,-0.0713,-0.5351,0.5271,-0.2015,0.009600000000000001
on,0.3004,0.2501,-0.16690000000000002,0.1923,0.0269,-0.0795,-0.9138000000000001,-0.19740000000000002,-0.0534,-0.40850000000000003,-0.2684,-0.2821,-0.5,0.1221,0.39030000000000004,0.178,-0.4429,-0.4048,-0.9505,-0.169,0.7779,0.3352,0.3346,-0.1754,-0.1202,-1.7861,0.2924,0.5593,0.03,-0.3242,3.9297,0.10880000000000001,-0.5734,-0.1784,0.004200000000000001,-0.1631,0.45080000000000003,-0.1612,-0.1731,-0.0879,-0.089,0.062,-0.1995,-0.3886,-0.18230000000000002,0.0608,0.09860000000000001,-0.0713,0.2305,-0.5194
is,0.6185,0.6425000000000001,-0.4655,0.37570000000000003,0.7484000000000001,0.5374,0.0022,-0.6058,0.2641,0.117,0.43720000000000003,0.20090000000000002,-0.0579,-0.34590000000000004,0.21660000000000001,0.5857,0.5392,0.6949000000000001,-0.1562,0.0558,-0.6052000000000001,-0.29,-0.0256,0.5559000000000001,0.2536,-1.9612,-0.5138,0.6910000000000001,0.06620000000000001,-0.054200000000000005,3.7871,-0.774,-0.1269,-0.5147,0.06670000000000001,-0.32930000000000004,0.1348,0.1905,0.1381,-0.215,-0.0166,0.312,-0.33190000000000003,-0.026000000000000002,-0.382,0.194,-0.1247,-0.2756,0.309,0.485
was,0.0869,-0.1942,-0.2427,-0.33390000000000003,0.5673,0.39780000000000004,-0.9781000000000001,0.0316,-0.6147,-0.3141,0.5614,0.12890000000000001,-0.8419000000000001,-0.46990000000000004,0.47100000000000003,0.023,-0.5961000000000001,0.22290000000000001,-1.1614,0.3865,0.0674,0.44880000000000003,0.1739,-0.5357000000000001,0.1791,-2.1647,-0.1283,0.2904,-0.1506,0.3524,3.124,-0.9008,-0.0257,-0.4171,0.4056,-0.227,0.7683,0.6098,0.07010000000000001,-0.1327,-0.12010000000000001,0.0961,-0.44,-0.4853,-0.5188,-0.30770000000000003,-0.7503000000000001,-0.77,0.3945,-0.1694
said,0.38970000000000005,-0.2121,0.5184,0.8014,1.0336,-0.2778,-0.8452000000000001,-0.2533,0.1259,-0.9034000000000001,0.24980000000000002,0.2202,-1.2053,-0.5377000000000001,1.0446,0.6278,0.397,-0.15810000000000002,0.381,-0.5467000000000001,-0.44010000000000005,1.0976,0.0131,-0.8997,0.4123,-2.2309,0.29,0.32180000000000003,-0.7274,-0.0922,3.028,-0.0626,0.0383,0.0073,-0.3539,-0.9226000000000001,0.0979,0.10070000000000001,1.2116,0.8823000000000001,-0.463,1.3186,0.327,-0.7345,0.893,-0.45320000000000005,-1.2698,0.8612000000000001,0.14150000000000001,1.2018
with,0.25620000000000004,0.4369,-0.1189,0.2034,0.41960000000000003,0.8586,-0.6034,-0.3184,-0.6718000000000001,0.004,-0.0752,0.11040000000000001,-0.7353000000000001,0.27440000000000003,0.054,-0.2383,-0.13770000000000002,0.011600000000000001,-0.4662,-0.5523,0.0833,0.5594,0.519,-0.2706,-0.2821,-1.3918,0.17500000000000002,0.2659,0.0614,-0.273,3.9032,0.38170000000000004,-0.056,-0.0044,0.2403,0.3068,-0.1264,0.33440000000000003,0.0755,-0.0362,0.1369,0.3776,-0.1216,-0.1381,0.195,0.22790000000000002,-0.17300000000000001,-0.0757,-0.2587,-0.3934
he,-0.20090000000000002,-0.0603,-0.6177,-0.8444,0.5781000000000001,0.1467,-0.861,0.6705,-0.8656,-0.18230000000000002,0.15860000000000002,0.4581,-1.0163,-0.3587,0.7387,-0.24050000000000002,-0.33890000000000003,0.2574,-0.7819,0.0835,0.17750000000000002,0.9177000000000001,0.6453,-0.199,0.37420000000000003,-2.7525,-0.0916,0.0403,-0.0648,-0.31470000000000004,3.3944,0.0449,-0.5504,-0.6533,0.1044,0.0164,0.2439,1.0085,0.3141,-0.3381,-0.1693,0.1023,-0.6214000000000001,0.1983,-0.36150000000000004,-0.2477,-0.3899,-0.3332,-0.0417,-0.0132
as,0.2078,0.12710000000000002,-0.3019,-0.23120000000000002,0.3018,0.33190000000000003,-0.5278,-0.4404,-0.48350000000000004,0.035,0.3478,0.5457000000000001,-0.2066,-0.08370000000000001,0.2462,0.1593,-0.0031000000000000003,0.3244,-0.45270000000000005,-0.2218,0.0227,-0.0417,0.31820000000000004,0.0886,-0.038,-1.8212000000000002,-0.5092,-0.0975,-0.08950000000000001,0.0505,3.718,-0.165,-0.0787,-0.5710000000000001,0.20420000000000002,0.1341,0.0743,0.08750000000000001,-0.2544,-0.1501,-0.1577,0.3961,-0.23650000000000002,-0.0951,0.0786,-0.0123,-0.4988,-0.353,0.0506,0.0195
it,0.6118,-0.2207,-0.109,-0.053,0.508,0.3468,-0.3356,-0.1915,-0.0359,0.1051,0.0794,0.2449,-0.4373,-0.33340000000000003,0.5748,0.6905,0.29710000000000003,0.0907,-0.5499,-0.46180000000000004,0.10110000000000001,-0.020200000000000003,0.2848,0.043500000000000004,0.45740000000000003,-2.0466,-0.5808,0.618,0.6518,-0.5826,4.0786,-0.25420000000000004,-0.14650000000000002,-0.3432,-0.2544,-0.44680000000000003,0.12660000000000002,0.2813,0.1333,-0.36970000000000003,0.050100000000000006,-0.10060000000000001,-0.0179,0.1114,-0.718,0.491,-0.1,-0.0437,-0.0979,0.1681
by,0.3522,-0.356,0.2571,-0.1061,-0.20720000000000002,0.636,-1.0129,-0.4596,-0.48750000000000004,-0.0806,0.43770000000000003,0.4605,-0.8094,-0.23340000000000002,0.4662,-0.1087,-0.1221,-0.6354000000000001,-0.7349,-0.2485,0.43170000000000003,0.09230000000000001,0.5203,-0.46780000000000005,0.016800000000000002,-1.5124,-0.19990000000000002,-0.4335,-0.5925,0.1809,3.5194,-0.7024,0.2361,-0.6851,-0.37010000000000004,-0.0805,0.10640000000000001,-0.0855,-0.1845,0.2977,0.1812,0.5363,-0.10010000000000001,-0.5516,0.0988,-0.12940000000000002,-0.8263,-0.4329,-0.10300000000000001,-0.5608000000000001
at,0.2772,0.8847,-0.2625,0.08410000000000001,0.4081,-1.1697,-0.6852,0.1427,-0.5734,-0.5858,-0.5083,-0.8641000000000001,-0.526,-0.5638000000000001,0.3286,0.4339,-0.21250000000000002,0.49360000000000004,-1.8137,-0.0357,1.3227,0.8086,0.0122,-0.08700000000000001,-0.1681,-1.5935000000000001,0.4703,0.261,-0.4167,-0.38530000000000003,3.4413,0.3438,-0.0359,-0.5678000000000001,0.18380000000000002,-0.48650000000000004,0.42650000000000005,0.4408,1.0931,0.0639,-0.06430000000000001,-0.2923,0.08650000000000001,0.3524,0.1789,0.2594,0.37070000000000003,-0.5161,0.023200000000000002,0.057800000000000004
from,0.41040000000000004,0.1134,0.051500000000000004,-0.5383,-0.1291,0.2225,-0.9494,-0.18960000000000002,-0.3662,-0.067,0.19360000000000002,-0.3304,0.11620000000000001,-0.5858,0.36110000000000003,0.12560000000000002,-0.35810000000000003,-0.023200000000000002,-1.2319,0.2338,0.7126,0.1482,0.5087,-0.1231,-0.20350000000000001,-1.82,0.22290000000000001,0.020300000000000002,-0.08170000000000001,-0.2748,3.7343,-0.0187,-0.0845,-0.30360000000000004,0.2796,0.043300000000000005,-0.2462,0.0154,0.4975,0.1511,-0.0162,0.40130000000000005,0.23070000000000002,-0.10740000000000001,-0.3662,-0.0511,0.0415,-0.36060000000000003,-0.1962,-0.8107000000000001
his,-0.0335,0.47540000000000004,-0.6875,-0.7266,0.8403,0.643,-0.7598,0.6324000000000001,-0.5418000000000001,0.1163,-0.2025,0.6332,-1.2677,-0.1767,0.3528,-0.551,-0.6502,-0.3405,-0.3166,-0.0779,-0.11080000000000001,0.973,-0.016800000000000002,-0.7375,0.47850000000000004,-2.7069,-0.4242,-0.053500000000000006,0.018500000000000003,-0.1189,3.3082000000000003,0.1786,-0.507,-0.22890000000000002,0.24180000000000001,0.5698,0.0971,0.9542,0.0076,-0.5415,0.0983,0.4153,-1.116,0.0051,-0.14980000000000002,-0.45130000000000003,-0.08120000000000001,-0.6217,-0.022600000000000002,-0.4383
an,0.3614,0.5861000000000001,-0.23720000000000002,0.07970000000000001,0.8019000000000001,0.49920000000000003,-0.3317,-0.1978,0.1388,0.168,0.12560000000000002,-0.2449,-0.09230000000000001,0.3514,-0.0244,-0.3171,0.0712,0.3709,-0.8203,0.2119,-0.0522,0.2993,-0.4949,-0.1255,-0.012400000000000001,-2.2174,-0.08270000000000001,0.15180000000000002,0.0504,0.6123000000000001,3.7305,-0.9315,-0.2872,-0.4806,0.060700000000000004,0.058100000000000006,0.42060000000000003,-0.0466,0.0835,-0.23820000000000002,0.38830000000000003,0.3693,-0.44070000000000004,0.0757,-0.0506,-0.4227,-0.21580000000000002,0.3936,0.3652,0.3608
be,0.911,-0.22870000000000001,0.20770000000000002,-0.2024,0.507,-0.0579,-0.4173,-0.0753,-0.3045,-0.0033,0.44480000000000003,0.4182,-0.3341,0.0329,0.9887,0.9198000000000001,0.4052,0.019200000000000002,-0.1052,-0.7986000000000001,-0.364,-0.088,0.7218,0.1111,0.21530000000000002,-1.9411,-0.26380000000000003,0.4455,0.27590000000000003,-0.211,4.0212,-0.061900000000000004,-0.32130000000000003,-0.8192,0.21080000000000002,-0.2041,0.7262000000000001,0.4752,-0.3985,-0.3917,-0.3458,0.025900000000000003,0.1307,0.7356,-0.152,-0.1844,-0.6713,0.16690000000000002,-0.050100000000000006,0.19240000000000002
has,0.5482,0.0388,0.1013,0.31320000000000003,0.0955,0.4181,-0.7949,-0.583,0.026600000000000002,0.12390000000000001,0.3519,-0.0216,-0.8702000000000001,-0.2718,0.6545000000000001,0.4293,0.0975,0.3178,-0.1192,-0.0971,-0.4758,0.24910000000000002,0.1223,-0.2908,-0.16870000000000002,-2.1072,0.0222,0.45280000000000004,-0.6448,0.1318,3.6593999999999998,-0.1714,0.23920000000000002,-0.42250000000000004,-0.0883,-0.3292,-0.1285,0.4706,-0.076,-0.2775,-0.419,0.608,-0.2426,0.0149,-0.232,0.020900000000000002,-0.8218000000000001,0.2659,-0.4027,-0.1711
are,0.9619000000000001,0.0125,0.21730000000000002,-0.0654,0.2684,0.33590000000000003,-0.4511,-0.6055,-0.46840000000000004,-0.1841,0.0609,0.196,0.22640000000000002,0.0328,0.4249,0.4968,0.6535000000000001,-0.0274,0.1781,-1.1979,-0.4063,-0.22660000000000002,1.1495,0.5934,-0.2376,-0.9325,-0.525,0.0512,0.0322,-0.7277,4.2466,0.6059,0.334,-0.8575,0.48950000000000005,0.2174,-0.1345,0.0095,-0.5417000000000001,0.18860000000000002,-0.6451,0.012700000000000001,0.7345,1.0032,0.4187,0.166,-0.7108,0.1403,-0.38470000000000004,-0.3871
have,0.9491,-0.3497,0.4812,-0.19310000000000002,-0.0088,0.2818,-0.9613,-0.1358,-0.4308,-0.09290000000000001,0.1569,0.0596,-0.4964,-0.1741,0.7566,0.49210000000000004,0.2177,-0.2278,-0.1369,-0.9059,-0.4878,0.19920000000000002,0.9145000000000001,-0.162,-0.2064,-1.7312,-0.4762,-0.0485,-0.1403,-0.45830000000000004,4.0326,0.6052000000000001,0.10450000000000001,-0.7361000000000001,0.2485,-0.0335,-0.134,0.0528,-0.2727,0.07980000000000001,-0.8013,0.3083,0.43570000000000003,0.8875000000000001,0.2982,-0.0246,-0.9508000000000001,0.3623,-0.7251000000000001,-0.6089
but,0.3593,-0.2657,-0.0465,-0.24960000000000002,0.5468000000000001,0.2592,-0.6446000000000001,0.1736,-0.5306000000000001,0.1394,0.0623,0.18460000000000001,-0.755,-0.1957,0.708,0.4476,0.27030000000000004,-0.32880000000000004,-0.3889,-0.6161,-0.484,0.417,0.34790000000000004,-0.1971,0.4073,-2.1488,-0.24280000000000002,0.3381,0.4399,-0.2162,3.7635,0.19,-0.125,-0.38230000000000003,0.12940000000000002,-0.1827,0.07680000000000001,0.5158,0.0073,-0.2919,-0.2752,0.40590000000000004,-0.040400000000000005,0.28350000000000003,-0.0247,0.1056,-0.32880000000000004,0.1067,-0.115,0.0747
were,0.7336,-0.7482000000000001,0.4591,-0.5604,0.09190000000000001,0.3302,-1.2034,-0.15560000000000002,-1.1205,-0.5938,0.233,-0.46280000000000004,-0.34790000000000004,-0.47900000000000004,0.5762,-0.1605,-0.2646,-0.1373,-0.9188000000000001,-0.6534,0.058800000000000005,0.6155,1.2607,-0.3982,-0.2606,-1.0127,-0.38520000000000004,-0.0969,-0.117,-0.4854,3.6902,0.3074,0.5071,-0.6537000000000001,0.8049000000000001,0.23670000000000002,0.6177,0.0302,-0.5764,0.6047,-0.6395000000000001,-0.11370000000000001,0.8498,0.4141,0.0838,-0.2874,-1.4735,-0.201,-0.17250000000000001,-1.0984
not,0.5502,-0.2494,-0.0009000000000000001,-0.264,0.5932000000000001,0.2795,-0.25670000000000004,0.0931,-0.3629,0.0908,0.2841,0.7134,-0.4751,-0.2441,0.8842000000000001,0.8911,0.43010000000000004,-0.2733,0.11280000000000001,-0.8166,-0.4127,0.17750000000000002,0.6194000000000001,0.1047,0.33330000000000004,-2.3125,-0.5237,-0.0219,0.538,-0.5062,3.8683,0.16640000000000002,-0.7198,-0.7473000000000001,0.1163,-0.3758,0.5552,0.1268,-0.22640000000000002,-0.1017,-0.35450000000000004,0.12350000000000001,0.1653,0.7042,-0.08020000000000001,-0.0684,-0.6763,0.3376,0.050100000000000006,0.3346
this,0.5307000000000001,0.4012,-0.4078,0.1544,0.4778,0.20750000000000002,-0.2695,-0.3402,-0.10880000000000001,0.1056,-0.1029,0.1085,-0.4968,-0.2513,0.8402000000000001,0.3895,0.32280000000000003,-0.228,-0.4434,-0.3165,-0.1241,-0.2817,0.1947,0.0555,0.5671,-1.7419,-0.9114000000000001,0.27040000000000003,0.4193,0.020300000000000002,4.0405,-0.2494,-0.20420000000000002,-0.6276,-0.0548,-0.26880000000000004,0.1844,0.182,-0.2354,-0.16160000000000002,-0.2766,0.035500000000000004,-0.3821,-0.0008,-0.2482,0.2816,0.1282,0.2876,0.1444,0.2361
who,-0.19460000000000002,-0.051300000000000005,0.2644,-0.5740000000000001,1.0236,0.5892000000000001,-1.3399,0.3103,-0.8943000000000001,-0.13190000000000002,0.213,0.2917,-0.6608,0.08410000000000001,0.7658,-0.4239,0.3244,0.136,-0.2999,-0.046400000000000004,-0.7481,1.2134,0.2499,0.2285,0.23550000000000001,-2.6054,0.12490000000000001,-0.9403,-0.5831000000000001,-0.32320000000000004,2.8419,0.3347,-0.339,-0.2343,0.3774,0.09380000000000001,-0.2597,0.6889000000000001,0.3769,-0.21860000000000002,-0.2424,1.0029,0.18610000000000002,0.27490000000000003,0.48090000000000005,-0.4353,-1.1012,-0.671,-0.2165,-0.025900000000000003
they,0.7084,-0.5736,0.15380000000000002,-0.6334000000000001,0.46880000000000005,-0.0666,-0.8683000000000001,0.3597,-0.6479,-0.2252,0.0975,0.2773,-0.3518,-0.2596,0.6237,0.6082000000000001,0.3491,-0.272,-0.2798,-1.0183,-0.1487,0.4193,1.0342,0.1778,0.13570000000000002,-1.9999,-0.5616,0.004,0.6084,-1.0031,3.9546,0.687,-0.5359,-0.7427,0.18080000000000002,0.0345,0.016,0.1247,-0.08460000000000001,-0.1038,-0.4786,-0.22310000000000002,0.2549,0.6998000000000001,0.3271,-0.1573,-0.6202000000000001,-0.2311,-0.31220000000000003,-0.3049
had,0.6035,-0.521,0.40850000000000003,-0.37220000000000003,0.3698,0.6108,-1.3228,0.24380000000000002,-0.5942000000000001,-0.35710000000000003,0.39940000000000003,0.031900000000000005,-1.0643,-0.5233,0.7145,0.0634,-0.46380000000000005,-0.34640000000000004,-0.7244,-0.1371,-0.1918,0.7222000000000001,0.6295000000000001,-0.8086,-0.037700000000000004,-2.0355,0.1057,-0.0386,-0.232,-0.2963,3.3215,0.0324,0.0854,-0.4077,0.4534,-0.09970000000000001,0.447,0.5422,0.1819,0.17500000000000002,-0.3383,0.317,-0.0253,0.09580000000000001,-0.25070000000000003,-0.4756,-1.0407,-0.1514,-0.22060000000000002,-0.5963
i,0.1189,0.1526,-0.0821,-0.7414000000000001,0.7592,-0.4833,-0.31010000000000004,0.5148,-0.9871000000000001,0.0006000000000000001,-0.1504,0.8377,-1.0797,-0.5146000000000001,1.3188,0.6201,0.1378,0.4711,-0.0729,-0.7268,-0.7412000000000001,0.7526,0.8818,0.29560000000000003,1.3548,-2.5701,-1.3523,0.45880000000000004,1.0068,-1.1856,3.4737,0.779,-0.7293000000000001,0.251,-0.2616,-0.3468,0.5584,0.751,0.4983,-0.2682,-0.0027,-0.0183,-0.281,0.5532,0.037700000000000004,0.18560000000000001,-0.1502,-0.5751000000000001,-0.2667,0.9212
which,0.9056000000000001,0.054,-0.0241,0.0811,0.0864,0.655,-0.3422,-0.7613000000000001,0.10260000000000001,0.059500000000000004,0.3035,-0.10310000000000001,-0.2857,-0.3506,0.23320000000000002,0.2791,-0.0022,0.16010000000000002,-0.6562,-0.13340000000000002,0.3849,-0.2087,0.2614,-0.0903,-0.34940000000000004,-1.5398,-0.4635,0.1673,-0.1925,-0.19790000000000002,4.008,-0.2451,-0.15460000000000002,-0.2889,-0.0495,-0.297,0.21610000000000001,-0.153,-0.12240000000000001,0.0714,-0.111,-0.1552,-0.0269,-0.0678,-0.5661,0.2099,-0.405,-0.1291,-0.1832,-0.588
will,0.8154,0.3017,0.5472,0.46580000000000005,0.2853,-0.5611,-0.43910000000000005,-0.0091,0.1,-0.17220000000000002,0.2813,0.37670000000000003,-0.4076,0.1584,0.8911,1.2997,0.5151,-0.1948,0.0519,-0.9338000000000001,0.07,-0.24880000000000002,-0.0167,-0.2031,-0.033600000000000005,-1.8132000000000001,0.112,-0.3196,-0.1375,-0.455,3.8856,1.214,-1.0046,-0.0563,0.0039000000000000003,-0.4067,0.29450000000000004,0.3017,0.0388,-0.5609000000000001,-0.46580000000000005,0.1716,0.3373,-0.1525,0.0238,0.5142,-0.21760000000000002,0.3196,-0.34740000000000004,0.4167
their,0.4152,0.1317,-0.056900000000000006,-0.5676,0.49920000000000003,0.2129,-0.8195,0.3226,-0.0654,-0.0555,0.1184,0.3693,-0.4642,-0.0724,0.0682,0.0015,-0.0732,-0.6567000000000001,0.11370000000000001,-0.9182,0.029300000000000003,0.381,0.3403,-0.215,-0.26680000000000004,-1.6509,-0.7167,-0.4127,0.48460000000000003,-0.6243000000000001,4.1939,1.4292,-0.459,-0.5171,0.2626,0.5109,-0.24,-0.06960000000000001,-0.4561,-0.4833,-0.39540000000000003,-0.5383,-0.0707,0.545,0.2351,-0.1875,-0.2242,-0.11810000000000001,-0.34500000000000003,-0.8695
or,0.2636,0.1875,0.0444,-0.1912,0.4546,0.6644,0.2586,-0.6489,-0.6765,0.0453,0.0711,0.3645,0.7486,-0.1749,0.2872,0.4328,-0.39180000000000004,-0.048600000000000004,-0.2137,-0.7299,0.139,-0.2331,0.7026,0.21760000000000002,-0.20650000000000002,-1.415,-0.3259,-0.075,0.8854000000000001,-0.5668000000000001,4.0296,0.0198,-0.5726,-0.0609,0.1467,0.1653,0.2119,-0.3836,0.42750000000000005,-0.0969,0.1928,0.0218,0.5856,0.9763000000000001,0.2038,-0.2162,-0.021500000000000002,-0.4294,0.5288,-0.126
its,0.7672,0.12390000000000001,-0.11120000000000001,0.1336,0.1836,0.0579,-0.3341,-0.6042000000000001,0.47640000000000005,0.2545,0.19490000000000002,-0.0611,-0.4582,-0.17370000000000002,-0.3272,0.3347,-0.32180000000000003,0.09050000000000001,-0.24680000000000002,-0.3547,0.5527000000000001,-0.33180000000000004,-0.5805,-0.5539000000000001,-0.6447,-1.8028,-0.6517000000000001,0.4374,0.051800000000000006,0.22640000000000002,4.2766,0.19440000000000002,-0.1343,-0.1028,-0.0625,-0.3907,-0.2938,-0.0135,-0.5814,-0.6972,-0.0689,-0.5005000000000001,-0.013800000000000002,-0.1101,-0.6428,0.43960000000000005,-0.22460000000000002,0.4893,-0.2615,-0.46890000000000004
one,0.31470000000000004,0.4166,0.1348,0.1585,0.8881,0.43320000000000003,-0.5592,0.030500000000000003,-0.1462,-0.1427,-0.17950000000000002,-0.1734,-0.49260000000000004,0.26780000000000004,0.488,-0.2954,0.18480000000000002,0.1494,-0.7501,-0.35650000000000004,-0.23700000000000002,0.1849,0.1724,0.2361,0.1408,-1.9031,-0.6535000000000001,-0.022500000000000003,0.1038,-0.437,3.781,-0.0441,-0.0466,0.0273,0.5188,0.1335,0.2323,0.256,0.0609,-0.0656,-0.15560000000000002,0.30820000000000003,-0.0936,0.333,-0.1461,0.016300000000000002,-0.24250000000000002,-0.2053,0.07010000000000001,-0.11570000000000001
after,0.38320000000000004,-0.3561,-0.1283,-0.1953,0.0476,0.2147,-0.9876,0.8296,-0.4278,-0.2288,0.1071,-0.30870000000000003,-1.2069,-0.1771,0.8884000000000001,0.0057,-0.773,-0.6691,-1.3384,0.3468,0.5044000000000001,0.5125000000000001,0.26830000000000004,-0.6531,-0.0815,-2.1658,0.5797,0.0363,0.0091,0.2577,3.4402,0.2073,-0.5203,0.026500000000000003,0.179,-0.0178,0.366,0.34540000000000004,0.4136,-0.2497,-0.4923,0.1774,-0.43760000000000004,-0.34840000000000004,-0.057100000000000005,-0.0396,-0.13520000000000001,-0.4258,0.1368,-0.7773
new,0.1951,0.5074000000000001,0.0015,0.0419,-0.1676,0.0375,-1.397,-0.924,-0.243,-0.1517,-0.4783,0.0546,-0.2499,0.384,0.0162,0.34940000000000004,-0.2263,0.08660000000000001,-0.41000000000000003,-0.1814,0.7561,-0.0262,-0.6956,0.1087,-0.47540000000000004,-1.8094999999999999,-0.1694,-0.0599,-0.1681,-0.0945,3.661,0.0415,-0.2916,-0.6977,0.308,-0.2846,0.1322,-0.0076,-0.09240000000000001,-0.4924,-0.2706,0.0604,0.0951,-0.2368,-0.08610000000000001,1.0243,-0.2278,0.030500000000000003,-0.1427,0.4541
been,0.9288000000000001,-0.7246,0.06810000000000001,-0.3816,-0.038700000000000005,0.22310000000000002,-1.1041,0.008400000000000001,-0.2664,-0.057100000000000005,0.33380000000000004,-0.023700000000000002,-0.7689,-0.17930000000000001,0.845,0.2878,-0.1275,0.1115,-0.3402,-0.1869,-0.28450000000000003,0.3256,0.8702000000000001,-0.2136,-0.0942,-2.0216,-0.21760000000000002,0.4505,-0.14070000000000002,0.08080000000000001,3.7849,-0.4107,0.332,-0.88,0.1731,0.1406,0.22710000000000002,0.485,-0.5126000000000001,-0.0217,-0.6940000000000001,0.145,0.0083,0.3839,0.16010000000000002,-0.3549,-1.1284,0.0471,-0.323,-0.6419
also,0.352,0.25320000000000004,-0.09770000000000001,0.2611,0.1298,0.33680000000000004,-0.7308,-0.4264,-0.228,-0.08360000000000001,0.5296000000000001,0.34640000000000004,-0.3282,-0.2867,0.24880000000000002,0.2205,0.0194,-0.0154,-0.1832,-0.2973,0.1174,-0.0712,0.41090000000000004,0.013900000000000001,-0.17420000000000002,-1.5838999999999999,-0.052000000000000005,-0.1812,-0.7638,-0.1782,3.749,-0.0456,0.1072,-0.5131,0.2528,-0.0517,0.3191,0.28,-0.19940000000000002,0.1782,0.018600000000000002,0.47640000000000005,-0.15660000000000002,-0.3829,0.26990000000000003,-0.0112,-0.7244,0.036500000000000005,-0.0115,-0.025900000000000003
we,0.5739000000000001,-0.32730000000000004,0.07050000000000001,-0.4198,0.862,-0.8,-0.406,0.1531,-0.2979,-0.1105,-0.0971,0.5964,-0.9981000000000001,-0.28150000000000003,1.0152,0.8754000000000001,1.0282,-0.0504,0.2419,-1.1426,-0.506,0.6498,0.7483000000000001,0.0205,0.9595,-1.9203999999999999,-0.8066,0.29250000000000004,1.0009,-0.9856,4.0094,1.0407,-0.8285,-0.4847,-0.36150000000000004,-0.3955,0.27890000000000004,0.1531,0.1585,0.0187,-0.509,-0.22920000000000001,0.18680000000000002,0.4495,0.1023,0.21880000000000002,-0.30610000000000004,0.48760000000000003,-0.1844,0.6994
would,0.7619,-0.2977,0.514,-0.133,0.2416,0.0668,-0.5408000000000001,0.2071,-0.2822,-0.1164,0.2167,0.5491,-0.3674,-0.10540000000000001,0.8157000000000001,1.1743000000000001,0.5606,-0.3345,0.0998,-0.8746,0.1223,-0.18530000000000002,0.0868,-0.3634,0.008,-2.2268,-0.2008,-0.10310000000000001,0.2432,-0.3982,3.7136,0.5909,-1.1013,-0.2529,0.0057,-0.6048,0.3597,-0.0596,-0.0291,-0.39890000000000003,-0.5263,0.12440000000000001,0.1361,0.127,-0.2303,-0.0446,-0.6545000000000001,0.4309,-0.2277,0.4026
two,0.5829,0.36260000000000003,0.3406,0.3642,0.34340000000000004,0.7939,-0.9362,0.1143,-0.63,-0.5552,-0.2871,-0.47140000000000004,-0.7567,0.6387,0.2248,-0.6465000000000001,-0.0743,-0.34900000000000003,-0.9728,-0.5398000000000001,0.0152,0.24480000000000002,0.6266,0.0704,-0.5163,-1.2004000000000001,0.31220000000000003,-0.4405,-0.2987,-0.5633,4.022,0.3846,-0.0285,0.0687,1.0746,0.48310000000000003,0.24750000000000003,0.228,-0.3574,0.40390000000000004,-0.5474,0.1524,0.41000000000000003,0.157,0.0078000000000000005,-0.0151,-0.28650000000000003,-0.16160000000000002,-0.3517,-0.8256
more,0.8794000000000001,-0.11180000000000001,0.4338,-0.4292,0.4199,0.21830000000000002,-0.3674,-0.6089,-0.4107,0.4899,-0.4006,-0.5016,0.2419,-0.1564,0.677,-0.021400000000000002,0.33680000000000004,0.3521,-0.24230000000000002,-1.0745,-0.1378,0.2995,0.446,-0.1446,0.16620000000000001,-1.3699,-0.38230000000000003,-0.0114,0.38130000000000003,0.0381,4.3657,0.44170000000000004,0.34040000000000004,-0.3554,0.3007,-0.0922,-0.3322,0.3771,-0.2967,-0.30310000000000004,-0.4965,0.3428,0.7709,0.6085,0.157,0.029400000000000003,-0.4269,0.3718,-0.7137,0.3018
',-0.039400000000000004,1.2036,0.354,-0.56,-0.5208,-0.6699,-0.7542,-0.6534,-0.2325,0.5869,-0.40800000000000003,1.2057,-1.11,0.5124000000000001,0.1246,0.0531,0.6104,-1.1295,-0.1183,0.2631,-0.7211000000000001,-0.07970000000000001,0.755,-0.0234,-0.5608000000000001,-2.1037,-1.8793000000000002,-0.179,-0.145,-0.6374000000000001,3.181,0.9341,-0.6183000000000001,0.5812,0.5896,-0.1981,0.4218,-0.8567,0.3321,0.0205,-0.6014,0.504,-0.0833,0.2024,0.443,-0.0608,-0.42810000000000004,-0.08410000000000001,0.49160000000000004,0.0857
first,-0.14170000000000002,0.4111,-0.3123,0.1663,0.2612,0.4571,-1.2001,0.0149,-0.2278,-0.1694,0.3463,-0.1242,-0.6571,0.2923,0.6241,-0.5792,-0.3395,-0.2205,-1.4832,0.2896,0.0814,-0.217,0.0057,-0.054200000000000005,0.0985,-1.5874000000000001,-0.22870000000000001,-0.6296,-0.39540000000000003,-0.08080000000000001,3.5949,-0.16870000000000002,-0.3902,0.0269,0.5265000000000001,-0.0228,0.6329,0.627,-0.2217,-0.4504,-0.15,-0.2772,-0.4666,-0.44270000000000004,-0.4369,0.3846,0.1369,-0.25420000000000004,0.0178,-0.1489
about,0.8947,0.366,0.3759,-0.4182,0.5846,0.1859,-0.41910000000000003,-0.4662,-0.549,0.024800000000000003,-0.9082,-0.4827,-0.0507,-0.7404000000000001,1.4377,-0.019700000000000002,-0.2384,0.4315,-0.6612,-0.4128,0.25470000000000004,0.935,0.8140000000000001,-0.17300000000000001,0.613,-1.8475000000000001,-0.2762,0.277,0.42350000000000004,-0.116,3.6243,0.1231,-0.0235,-0.2484,-0.2238,-0.5394,-0.6244000000000001,-0.2771,0.49410000000000004,0.020200000000000003,-0.2346,0.4451,0.534,0.6665,-0.0937,-0.0352,-0.06420000000000001,0.56,-0.6659,0.1218
up,0.0323,-0.2707,0.6811,-0.27940000000000004,0.5797,-0.0081,-0.8279000000000001,-0.5334,-0.47850000000000004,-0.0683,-0.4696,-0.31720000000000004,-0.4937,0.0981,0.49960000000000004,0.273,0.0999,-0.1615,-0.6995,-0.7044,0.5908,0.6203000000000001,0.3047,-0.4158,-0.0222,-1.6312,0.5468000000000001,0.2575,0.4454,-0.728,3.9129,0.8008000000000001,-0.1884,0.4244,0.0392,-0.09390000000000001,-0.3952,0.20980000000000001,0.5949,-0.3907,-0.3156,0.24070000000000003,0.4169,0.1042,-0.0443,-0.0952,0.2546,-0.5670000000000001,0.0332,-0.5812
when,0.2706,-0.366,0.09720000000000001,-0.5071,0.3738,0.16740000000000002,-0.9418000000000001,0.54,-0.6667000000000001,-0.2424,0.25880000000000003,0.2808,-0.8664000000000001,-0.069,0.9035000000000001,0.4088,-0.3956,-0.256,-1.0316,-0.2667,-0.0806,0.40840000000000004,0.5588000000000001,-0.183,0.46490000000000004,-2.2671,0.14100000000000001,0.19840000000000002,0.5153,-0.2761,3.3604,0.1512,-0.3669,-0.28800000000000003,0.076,-0.0767,0.219,0.39,0.38680000000000003,-0.1696,-0.3367,0.3709,-0.4591,0.0007,-0.178,0.1247,-0.0154,-0.7526,-0.1734,-0.22590000000000002
year,-0.0988,0.26980000000000004,0.353,-0.1073,-0.0152,0.0534,-1.0824,-0.53,0.0095,0.0704,-0.0892,-0.6267,-0.5266000000000001,-0.5657,1.8044,0.016900000000000002,-0.44870000000000004,-0.0415,-1.1136,0.1749,0.49560000000000004,-0.3824,0.3018,-0.7068,-0.3589,-1.5164,-0.0244,-0.5411,-0.36160000000000003,0.528,3.6553,0.7121000000000001,-0.17,0.3637,0.33990000000000004,-0.48190000000000005,0.10940000000000001,0.6143000000000001,0.157,-0.7072,-1.2359,-0.0143,0.0956,-0.3063,-0.4974,-0.0494,-0.167,0.1197,-0.37510000000000004,0.0983
there,0.6849000000000001,0.3239,-0.1159,-0.3592,0.4989,0.0425,-0.4015,-0.3679,-0.6144000000000001,-0.41150000000000003,-0.3482,-0.2195,-0.22390000000000002,-0.6497,0.8544,0.33580000000000004,0.2931,0.1655,-0.5508000000000001,-0.6128,-0.1477,0.47550000000000003,0.6588,-0.07100000000000001,0.5615,-1.2651,-0.7412000000000001,0.36360000000000003,0.5623,-0.2736,3.8506,0.27640000000000003,-0.1009,-0.7157,0.18510000000000001,-0.1231,0.5663,-0.2238,-0.016800000000000002,0.5754,-0.5176000000000001,0.033800000000000004,0.19640000000000002,0.635,-0.2487,0.038700000000000005,-0.5056,0.1787,-0.1693,0.062400000000000004
all,0.1925,0.10010000000000001,0.06380000000000001,-0.0877,0.5222,0.391,-0.4198,-0.4567,-0.3405,-0.11180000000000001,0.0148,0.3173,-0.5085000000000001,-0.11560000000000001,0.743,0.0976,0.3441,-0.1213,-0.1694,-0.8409000000000001,-0.11230000000000001,0.406,0.768,0.0911,0.1078,-1.2673,-0.5771000000000001,-0.36210000000000003,0.3482,-0.7546,4.0426,0.9497000000000001,-0.2267,-0.3578,0.3413,0.1307,0.23040000000000002,-0.037,-0.2589,0.1298,-0.39030000000000004,-0.049600000000000005,0.4577,0.5678000000000001,-0.4616,0.4193,-0.5492,0.08120000000000001,-0.3048,-0.30510000000000004
out,0.3211,-0.6931,0.4792,-0.546,0.28350000000000003,0.20350000000000001,-0.9844,-0.14100000000000001,-0.1315,-0.08600000000000001,-0.49510000000000004,0.0028,-1.1173,0.3373,0.6131,-0.0671,0.3538,-0.3518,-0.5819,-0.6952,-0.025,0.6168,0.7852,-0.19590000000000002,0.2632,-1.8976000000000002,0.1464,0.4888,0.6182000000000001,-1.012,3.7285,0.6662,-0.3336,0.319,-0.1517,0.3098,0.0497,0.27140000000000003,0.34600000000000003,-0.0819,-0.37470000000000003,0.39980000000000004,0.0849,0.3124,-0.1268,0.0363,-0.0695,-0.4355,-0.11080000000000001,-0.585
she,0.0604,0.37820000000000004,-0.7514000000000001,-0.7216,0.5865,0.7913,-0.7295,0.6825,-0.13,-0.22990000000000002,0.116,0.2243,-0.44680000000000003,-0.11520000000000001,1.0334,-0.088,-0.7853,0.343,-0.11460000000000001,-0.11900000000000001,0.45880000000000004,1.6333000000000002,0.6855,0.22310000000000002,1.0099,-2.6332,-0.5213,0.2566,0.0235,-0.8262,3.1084,0.2722,-0.2923,-0.4726,-0.123,-0.13540000000000002,0.1119,0.8644000000000001,0.3312,-0.9662000000000001,-0.0448,-0.06670000000000001,0.003,-0.339,0.0178,-0.585,-0.005,-1.2570000000000001,-0.060700000000000004,0.42250000000000004
other,0.6476000000000001,0.16,0.0292,0.3512,0.0891,0.6112000000000001,-0.6636000000000001,-0.5172,-0.4652,-0.0884,0.0502,0.26330000000000003,0.1241,0.0438,0.1728,0.0132,0.14170000000000002,-0.1583,-0.1043,-0.9307000000000001,0.2165,-0.1075,0.6209,0.36760000000000004,-0.48140000000000005,-1.28,-0.5515,-0.7202000000000001,-0.171,-0.47990000000000005,4.0165,0.47050000000000003,0.0936,-0.8634000000000001,0.5088,0.3335,-0.35960000000000003,-0.1665,-0.318,0.49,-0.367,0.3205,0.7093,0.6288,0.7013,0.1302,-0.7377,0.1032,-0.30960000000000004,-0.44210000000000005
people,0.9528000000000001,-0.2061,0.5562,-0.4632,0.7335,0.0291,-0.1937,-0.0901,-0.2296,-0.19060000000000002,-0.3486,-1.0231,0.743,-0.5489,0.8848,-0.1405,0.004,0.5845,0.1077,-0.4466,-0.432,0.9868,0.7829,0.5151,0.8579,-1.7713,-0.8826,-0.5973,0.0849,-0.4811,3.9678,0.8893000000000001,-0.2706,-0.4409,-0.2621,0.08560000000000001,0.0221,-0.5838,0.1091,0.7797000000000001,-0.9545,0.4048,0.8941,0.6525000000000001,0.3986,0.2088,-1.3281,-0.10880000000000001,-0.22820000000000001,-0.463
her,0.134,0.8918,-0.7676000000000001,-0.6418,0.862,1.3122,-0.6402,0.8207,0.32780000000000004,0.021500000000000002,-0.0952,0.4082,-0.636,-0.0183,0.6971,-0.2953,-1.1912,-0.23900000000000002,0.34340000000000004,-0.332,0.23700000000000002,1.8364,0.123,-0.1862,0.865,-2.636,-0.7791,0.203,0.1898,-0.799,2.9882,0.4434,-0.2837,-0.19590000000000002,0.061900000000000004,0.3856,-0.027600000000000003,0.7185,0.1716,-1.2168,0.0816,0.1729,-0.31720000000000004,-0.3704,0.1898,-0.8918,0.1849,-1.6251,0.0391,-0.1028
than,0.6314000000000001,0.1553,0.7853,-0.49970000000000003,0.6128,0.3846,-0.244,-0.6557000000000001,-0.3407,0.4892,-0.28450000000000003,-0.7229,0.3013,-0.31670000000000004,0.9825,-0.020200000000000003,0.1748,0.5432,-0.6437,-0.9738,-0.32020000000000004,0.0539,0.47350000000000003,-0.1922,-0.0258,-1.419,-0.44520000000000004,0.0181,0.34340000000000004,0.0884,4.0942,0.458,0.32830000000000004,-0.0692,0.2626,-0.2969,-0.28700000000000003,0.3166,-0.12810000000000002,-0.3331,-0.49710000000000004,0.43710000000000004,0.6727000000000001,0.7268,-0.2132,-0.09580000000000001,-0.25780000000000003,0.1306,-0.8715,0.1935
over,0.1297,0.0881,0.24380000000000002,0.0781,-0.1278,0.2783,-0.4869,0.1965,-0.3956,-0.2836,-0.4742,-0.5932000000000001,-0.588,-0.317,0.4959,0.0088,0.0396,-0.425,-0.9764,-0.46530000000000005,0.0207,0.08600000000000001,0.3932,-0.5125000000000001,-0.1791,-1.8333,0.5622,0.4163,0.0751,0.0219,3.784,0.7107,-0.07390000000000001,0.1537,-0.38530000000000003,-0.0702,-0.3537,0.0745,-0.08420000000000001,-0.4555,-0.0811,0.3916,0.17300000000000001,0.22540000000000002,-0.12840000000000001,0.40950000000000003,-0.26080000000000003,0.09090000000000001,-0.6052000000000001,-0.9827
into,0.6675,-0.4132,0.0658,-0.4665,0.00030000000000000003,0.1835,-0.6527000000000001,0.09340000000000001,-0.008700000000000001,-0.1887,-0.0063,0.0449,-0.668,0.48510000000000003,-0.11850000000000001,0.19970000000000002,0.18180000000000002,0.033100000000000004,-0.5911000000000001,-0.21830000000000002,0.41440000000000005,0.0567,0.42160000000000003,0.278,-0.11320000000000001,-1.9227,0.035500000000000004,0.6193000000000001,0.6221,-0.6399,3.9115,-0.0211,-0.24680000000000002,-0.13920000000000002,-0.22540000000000002,0.5913,-0.7322000000000001,0.11620000000000001,0.41550000000000004,-0.1519,-0.14930000000000002,0.0407,-0.1042,0.2373,-0.438,0.0606,0.5507000000000001,-0.9657,-0.26880000000000004,-1.1741
last,0.32270000000000004,-0.1182,0.1514,0.43470000000000003,0.0048000000000000004,-0.0762,-1.1967,0.2511,-0.33440000000000003,-0.1199,-0.3437,-0.9741000000000001,-1.0005,-0.2,1.5067,-0.0011,-0.5825,-0.4988,-1.2107,0.1945,0.0543,0.16620000000000001,0.2652,-0.7074,-0.47840000000000005,-1.9295,0.1114,0.1653,-0.25420000000000004,0.2612,3.4639,0.3402,-0.25120000000000003,0.3174,0.23340000000000002,-0.4088,0.32080000000000003,0.317,0.0219,-0.5617,-0.9013,0.2373,-0.0572,-0.2459,-0.061900000000000004,0.20670000000000002,-0.487,0.3648,-0.18610000000000002,-0.34690000000000004
some,0.9287000000000001,-0.10830000000000001,0.215,-0.5024000000000001,0.1038,0.2273,-0.542,-0.2901,-0.6461,0.12660000000000002,-0.41490000000000005,-0.2934,0.36860000000000004,-0.4173,0.6912,0.0673,0.19720000000000001,-0.030500000000000003,-0.2172,-1.2238,0.0095,0.19590000000000002,0.5659000000000001,-0.0675,0.0592,-1.3909,-0.8928,-0.1355,0.162,-0.4021,4.1644,0.37820000000000004,0.158,-0.4889,0.2313,0.2326,-0.2531,-0.1998,-0.1226,0.1562,-0.32,0.3831,0.4727,0.877,0.32220000000000004,0.0013000000000000002,-0.49860000000000004,0.5558000000000001,-0.7036,-0.5269
time,0.026500000000000003,0.33740000000000003,0.06570000000000001,-0.11610000000000001,0.41650000000000004,-0.2114,-0.6958000000000001,0.2822,-0.3608,-0.13820000000000002,0.012100000000000001,0.0862,-0.8464,0.0572,1.1582,0.147,-0.0049,-0.249,-0.9601000000000001,-0.3038,0.23970000000000002,0.2106,0.4061,0.1779,0.5525,-1.6357,-0.1778,-0.45220000000000005,0.458,0.1424,3.7087,0.40290000000000004,-0.4083,-0.293,0.0309,-0.15360000000000001,0.1061,0.634,0.124,-0.2535,-0.1034,0.007,-0.1733,0.3554,-0.4637,0.1529,0.4148,-0.3398,-0.23040000000000002,0.1907
you,-0.0011,0.3332,0.3574,-0.5404,0.8203,-0.4939,-0.3259,0.002,-0.2383,0.35550000000000004,-0.6066,0.9893000000000001,-0.2179,0.1124,1.1494,0.7328,0.5118,0.2929,0.28390000000000004,-1.359,-0.3795,0.5094000000000001,0.7071000000000001,0.6294000000000001,1.0534,-2.1756,-1.3204,0.4,1.5741,-1.6600000000000001,3.7721,0.8695,-0.8044,0.1839,-0.3433,0.010700000000000001,0.23970000000000002,0.06670000000000001,0.7012,-0.737,0.2088,0.11560000000000001,-0.1519,0.8591000000000001,0.2262,0.1652,0.36310000000000003,-0.457,-0.049,1.1316
years,0.1696,0.4344,-0.042100000000000005,-0.6332,-0.1278,0.5367000000000001,-1.0662,-0.32630000000000003,-0.5008,0.10250000000000001,-0.022,-0.35100000000000003,-0.6415000000000001,-0.42450000000000004,1.3836,-0.13540000000000002,-0.24750000000000003,0.22160000000000002,-0.6556000000000001,0.44420000000000004,0.17020000000000002,0.3582,0.5638000000000001,-0.48040000000000005,-0.1476,-1.629,-0.3131,-0.4722,0.026600000000000002,0.47600000000000003,3.4619,0.1207,-0.0453,-0.47300000000000003,0.2857,-0.0776,-0.1645,0.7181000000000001,0.2617,-0.16840000000000002,-1.245,-0.0762,0.1749,0.2451,-0.638,-0.211,-0.49920000000000003,-0.5011,-0.7704000000000001,-0.32230000000000003
if,0.49860000000000004,-0.1228,0.44770000000000004,-0.08270000000000001,0.7812,0.1203,-0.044700000000000004,0.4796,-0.2454,0.0732,0.13540000000000002,0.4748,-0.45840000000000003,-0.125,1.2397,1.1176,0.5239,-0.2514,0.0949,-0.8722000000000001,-0.45380000000000004,-0.0099,0.4612,0.23340000000000002,0.30670000000000003,-2.4232,-0.21250000000000002,0.3755,0.9285,-0.4706,3.6259,0.3914,-0.9416,-0.3195,-0.1285,-0.47340000000000004,0.41340000000000005,0.0412,0.3008,-0.6125,-0.23720000000000002,0.2472,-0.044700000000000004,0.6241,-0.2735,0.008700000000000001,-0.2291,0.264,-0.062200000000000005,0.6292
no,0.3496,0.4015,-0.0126,0.1374,0.40080000000000005,0.46680000000000005,-0.0974,-0.0025,-0.3356,-0.0046,-0.0591,0.2753,-0.39740000000000003,-0.2927,0.9744,0.4188,0.184,-0.20600000000000002,-0.0614,-0.6158,-0.5347000000000001,0.41540000000000005,0.34850000000000003,-0.31880000000000003,0.274,-1.832,-0.8236,0.4882,1.1372,-0.38020000000000004,3.8114,0.2551,-0.7064,-0.2582,0.0409,-0.0974,0.7957000000000001,-0.4948,0.1087,0.1484,-0.1839,0.1331,0.2147,0.5393,-0.19340000000000002,-0.4222,-0.6141,0.7037,0.5759000000000001,0.43510000000000004
world,-0.41490000000000005,0.7185,-0.3045,0.8744000000000001,0.22440000000000002,-0.5649000000000001,-0.37570000000000003,-0.448,0.6135,-0.1136,0.7456,-0.106,-1.1882,0.5097,1.3511,0.0699,0.7331000000000001,0.2677,-1.1787,-0.148,0.039900000000000005,0.033100000000000004,-0.2741,0.25120000000000003,0.4151,-1.6188,-0.8178000000000001,-0.7389,-0.29,0.5728,3.4719,0.7382000000000001,-0.044500000000000005,-0.1512,-0.935,-0.1315,-0.2856,0.7633000000000001,-0.8333,-0.6793,-0.391,-0.6447,1.0044,-0.2051,0.468,0.9931000000000001,-0.1622,-0.4602,-0.3764,-0.6754
can,0.8052,0.37120000000000003,0.5593,-0.0114,0.17320000000000002,0.195,0.0577,-0.1245,-0.011300000000000001,0.20650000000000002,0.4108,0.8958,0.3189,0.0308,0.6019,1.2023,0.6828000000000001,-0.1327,0.1698,-1.4674,-0.4184,-0.47400000000000003,0.7267,0.6109,0.44580000000000003,-1.4793,-0.5004000000000001,-0.12250000000000001,0.7599,-0.7711,3.9653,0.3808,-0.6439,-0.849,0.0755,0.1752,0.3012,0.1296,0.2725,-0.3295,0.3421,0.15610000000000002,0.20950000000000002,0.9795,0.3593,0.1912,0.4549,-0.1895,-0.209,0.4761
three,0.40540000000000004,0.438,0.3624,0.25680000000000003,0.3825,0.6826,-0.9785,0.1274,-0.46130000000000004,-0.5481,-0.3538,-0.5670000000000001,-0.6576000000000001,0.5018,0.5325,-0.7796000000000001,-0.08990000000000001,-0.37570000000000003,-1.1097,-0.3073,-0.0227,0.1163,0.677,-0.051500000000000004,-0.5972000000000001,-1.02,0.2429,-0.6022000000000001,-0.3518,-0.5405,3.9844,0.4152,0.040400000000000005,0.2691,1.1193,0.5292,0.37310000000000004,0.2892,-0.1471,0.23570000000000002,-0.7271000000000001,0.0533,0.45370000000000005,0.20370000000000002,-0.1338,0.015300000000000001,-0.2204,-0.15660000000000002,-0.3029,-0.7754000000000001
do,0.296,-0.1384,0.0438,-0.3874,0.1226,-0.6518,-0.28240000000000004,0.0903,-0.5519000000000001,0.3206,0.0037,0.9323,-0.22030000000000002,-0.2192,0.9217000000000001,0.7572,0.8489,-0.004200000000000001,0.5363,-1.2667,-0.6103000000000001,0.167,0.8275,0.6576000000000001,0.48960000000000004,-1.9744000000000002,-1.149,-0.2146,0.8054,-1.4745,3.749,1.0141,-1.1293,-0.5266000000000001,-0.1203,-0.2793,0.0651,-0.0436,0.6043000000000001,-0.2089,-0.45740000000000003,0.010400000000000001,0.4146,0.6890000000000001,0.1447,-0.032,-0.048100000000000004,-0.0001,0.1385,0.9695
;,-0.116,1.1429,0.026000000000000002,-0.0085,0.319,0.6598,-0.2506,-0.9837,-0.8333,-0.21150000000000002,-0.37310000000000004,0.4123,0.029500000000000002,-0.42160000000000003,0.26830000000000004,-0.3826,-0.267,-0.17550000000000002,-0.6999000000000001,0.0884,-0.057800000000000004,0.1438,0.43370000000000003,0.3184,-0.2841,-0.9644,0.09620000000000001,-0.5305,0.5912000000000001,-0.4279,3.3692,0.06760000000000001,-0.1039,-0.047900000000000005,0.11320000000000001,-0.0563,0.147,0.057100000000000005,1.0275,0.4166,0.6982,0.5468000000000001,0.9115000000000001,-0.2666,-0.3527,1.1042,0.0741,-0.8676,0.075,0.804
only,0.2489,0.2149,0.229,-0.1267,0.631,0.5115000000000001,-0.4651,0.0683,-0.3094,-0.007,0.19940000000000002,-0.1802,-0.1883,-0.28700000000000003,0.7878000000000001,0.0674,0.2088,-0.0772,-0.6901,-0.4217,-0.3975,-0.0506,0.5029,0.10790000000000001,0.2305,-1.5503,-0.1847,-0.1832,0.26180000000000003,-0.29710000000000003,3.9005,0.27990000000000004,-0.1658,-0.19,0.4665,-0.0349,0.579,0.44880000000000003,-0.2995,-0.2616,-0.1613,0.023,0.2928,0.4646,-0.5964,0.1268,-0.3577,0.03,-0.1492,-0.08420000000000001
state,-0.9422,-0.0565,0.0891,0.7138,-0.1771,-0.1351,-0.27890000000000004,0.32980000000000004,0.191,-0.9203,-0.5117,-0.45740000000000003,0.4514,-0.5245000000000001,-0.11620000000000001,0.07980000000000001,0.1983,0.3239,0.42860000000000004,0.3881,0.09190000000000001,-0.5858,0.0284,-0.154,-0.4097,-2.6746,0.1404,-0.1316,-0.42860000000000004,-0.353,3.4471,-0.2641,-0.6144000000000001,-0.9979,0.061,-0.11720000000000001,-0.23470000000000002,0.1554,0.5794,0.2904,-1.1877,0.5191,0.19410000000000002,-0.0105,-1.2179,0.6774,-1.039,0.5355,0.209,0.1008
could,0.9075000000000001,-0.38320000000000004,0.6765,-0.20220000000000002,0.1516,0.1363,-0.48810000000000003,0.4822,-0.09570000000000001,0.1831,0.2701,0.4142,-0.4893,-0.0076,0.7966000000000001,1.0989,0.538,-0.5447000000000001,-0.16060000000000002,-0.9835,-0.19190000000000002,-0.2144,0.1996,-0.3134,0.241,-2.2662,-0.25930000000000003,-0.109,0.6618,-0.481,3.6298,0.454,-0.6448,-0.5224,0.0429,-0.166,0.0971,0.0448,0.2039,-0.4632,-0.46430000000000005,0.3239,0.25980000000000003,0.40850000000000003,0.20350000000000001,0.0587,-0.1641,0.20670000000000002,-0.1844,0.0711
us,0.19090000000000001,0.2434,1.2768,-0.038200000000000005,0.6094,-0.7019000000000001,0.0409,-0.449,0.008,-0.1882,-0.6858000000000001,-0.1246,-0.3286,-0.07350000000000001,0.7911,0.31980000000000003,0.0811,-0.033100000000000004,-0.6007,0.0145,0.4277,0.7132000000000001,0.1333,-0.6425000000000001,0.0664,-2.2346,0.0137,-0.4565,0.40540000000000004,-0.004200000000000001,3.4561,0.546,-0.3789,0.582,-0.2285,-0.8409000000000001,-0.30460000000000004,-0.6967,-0.4232,-0.8176,0.0361,0.2574,1.745,-0.6148,0.41550000000000004,0.4,-0.5153,0.8997,-0.5432,0.6939000000000001
most,0.5325,0.0307,-0.1296,-0.1567,0.25170000000000003,0.20270000000000002,-0.7187,-0.2782,-0.4738,0.49720000000000003,-0.1252,-0.249,0.2379,0.1109,0.4479,-0.1077,0.4403,0.167,-0.3407,-0.5413,-0.5609000000000001,-0.1246,0.2359,0.3987,0.1358,-1.4765000000000001,-1.1334,-0.2348,0.1792,0.2018,3.9566,0.0092,0.6139,-0.7538,0.4212,0.09290000000000001,-0.26230000000000003,0.48910000000000003,-0.7876000000000001,-0.10650000000000001,-0.6839000000000001,0.3447,0.4279,0.7116,0.0514,0.3376,-0.7208,0.0693,-0.3433,-0.0679
against,-0.6126,-0.811,-0.18430000000000002,0.34,-0.2286,0.5397000000000001,0.29660000000000003,0.5119,-0.805,0.1212,-0.3431,-0.35710000000000003,-1.1692,-0.9063,0.1854,-0.434,0.27540000000000003,-0.9292,-1.2241,0.5056,-0.4612,-0.159,0.3235,-0.3856,-1.0403,-2.6112,0.8416,-0.596,0.2802,-0.2432,3.2053,0.6492,-0.45330000000000004,-0.42510000000000003,-0.1966,-0.0184,-0.0459,-0.1197,-0.6488,-0.7552,-0.1416,0.0884,0.41850000000000004,0.1461,0.3982,0.5282,-0.795,0.014,0.17370000000000002,-0.6768000000000001
so,0.6031000000000001,-0.32020000000000004,0.0889,-0.5518000000000001,0.5318,0.0471,-0.36250000000000004,0.0057,-0.3766,0.2253,-0.1353,0.3599,-0.4252,0.0713,0.7706000000000001,0.5671,0.4123,0.1245,0.1423,-0.9654,-0.3905,0.342,0.5697,0.0316,0.6946,-1.9216000000000002,-0.6712,0.5797,0.8609,-0.591,3.7787,0.3043,-0.0431,-0.424,-0.0639,-0.0668,0.062,0.5633,-0.22340000000000002,-0.47390000000000004,-0.4702,0.0917,0.14780000000000001,0.638,-0.1436,-0.0023,-0.315,-0.2519,-0.26880000000000004,0.36660000000000004
them,0.6464000000000001,-0.556,0.47040000000000004,-0.8207,0.7951,0.2877,-0.5643,0.1463,-0.5242,0.0216,-0.11270000000000001,0.3199,-0.0575,-0.2338,0.637,0.3382,0.46490000000000004,-0.424,0.09190000000000001,-0.8804000000000001,0.22080000000000002,0.7127,0.982,-0.033800000000000004,0.3155,-1.8001,-0.26,-0.3776,0.8563000000000001,-1.3393,3.6408,0.8727,-0.7923,-0.5127,0.1442,0.5544,0.10060000000000001,0.1323,-0.0719,-0.164,-0.09,-0.031900000000000005,0.6139,0.4042,0.22690000000000002,-0.1897,-0.554,-0.3583,-0.11,-0.447
what,0.45320000000000005,0.059800000000000006,-0.1058,-0.333,0.7236,-0.0872,-0.6105,-0.037700000000000004,-0.3094,0.218,-0.436,0.4732,-0.7687,-0.2713,1.1042,0.5914,0.5696,-0.18680000000000002,0.1487,-0.6729,-0.3467,0.5228,0.2296,-0.07200000000000001,0.9397000000000001,-2.3985,-1.3238,0.28700000000000003,0.7551,-0.7652,3.3425000000000002,0.1723,-0.518,-0.8297,-0.2933,-0.5008,-0.15230000000000002,0.099,0.18150000000000002,-0.17420000000000002,-0.4067,0.20350000000000001,-0.0118,0.48250000000000004,0.0246,0.3406,-0.0847,0.5324,-0.251,0.6255000000000001
him,0.11960000000000001,-0.0454,0.0511,-0.8287,0.9766,0.11130000000000001,-0.5459,1.1561,-0.6808000000000001,0.060200000000000004,-0.2876,0.8806,-0.918,-0.18330000000000002,0.8418,-0.11860000000000001,-0.1496,-0.16160000000000002,-0.37410000000000004,-0.4534,-0.1852,1.0392,0.5567,-0.1431,0.7139,-2.9407,-0.0519,-0.13870000000000002,0.3215,-0.9797,2.9054,0.5343,-0.8142,-0.48850000000000005,0.0112,0.42210000000000003,0.39,0.4524,-0.0071,-0.6489,0.0911,0.46890000000000004,-0.5819,0.4565,0.0273,-0.4454,-0.4237,-0.6279,0.0246,-0.1434
during,0.2978,-0.0184,-0.7189,-0.4651,-0.4566,-0.004200000000000001,-0.746,0.3466,-0.5178,-0.5877,0.184,-0.369,-0.5222,-0.1408,0.8345,-0.2696,-0.8936000000000001,-0.11810000000000001,-1.3076,0.47500000000000003,0.5282,-0.022,0.6187,-0.6536000000000001,-0.14300000000000002,-1.6466,-0.053,-0.1705,0.1705,0.7576,3.5832,0.1378,-0.3781,-0.4874,0.007,0.5991000000000001,0.314,0.3073,-0.424,0.3538,-0.9715,0.1608,-0.6367,-0.20450000000000002,-0.0708,-0.32220000000000004,-0.049300000000000004,-0.4186,-0.6899000000000001,-0.5491
before,0.30810000000000004,-0.2967,-0.2571,-0.5871000000000001,0.0951,-0.1521,-0.9148000000000001,0.7573000000000001,-0.3042,-0.2906,-0.1303,-0.101,-0.8976000000000001,-0.0048000000000000004,0.8006000000000001,0.1696,-0.5063,-0.6584,-1.1339000000000001,-0.111,0.6542,0.3538,0.6365000000000001,-0.3008,0.0262,-1.9383,0.6907,0.17020000000000002,0.19920000000000002,-0.3931,3.4795,0.3255,-0.7631,-0.1512,0.1817,-0.0077,0.5552,0.5614,0.2797,-0.12890000000000001,-0.3904,0.0044,-0.32370000000000004,0.0099,-0.37870000000000004,0.3002,0.2088,-0.5384,-0.1106,-0.5478000000000001
may,0.7048,0.22260000000000002,0.08700000000000001,-0.2124,-0.08940000000000001,0.4374,-0.2817,0.1338,-0.5086,-0.1824,0.49510000000000004,0.42460000000000003,0.0468,-0.5012,0.8462000000000001,1.0146,-0.4395,-0.655,-0.6471,-0.2336,0.2761,-0.6329,0.9106000000000001,0.0333,-0.0585,-1.6059,-0.34740000000000004,-0.3628,0.4672,0.244,3.4249,0.0562,-0.7199,-0.8833000000000001,0.33740000000000003,-0.5324,0.33990000000000004,0.0238,0.2384,-0.3871,-0.49620000000000003,-0.14850000000000002,0.046200000000000005,0.1032,0.17370000000000002,0.1376,0.085,-0.39690000000000003,0.1763,0.3186
since,0.1542,-0.1255,0.0223,-0.06760000000000001,-0.3598,0.1441,-1.0902,-0.0287,-0.4315,-0.1378,0.3784,-0.6303000000000001,-0.9552,-0.2006,1.2613,0.3551,-0.4884,-0.1105,-0.9947,0.5671,0.0149,-0.1087,0.42,-0.252,-0.4238,-1.6795,0.021400000000000002,-0.1153,0.0106,0.913,3.6854,-0.11750000000000001,-0.0937,-0.4344,0.013800000000000002,-0.1834,0.0407,0.39790000000000003,-0.3362,-0.2041,-1.1319,-0.1232,-0.243,-0.1129,-0.5579000000000001,0.1189,-0.43920000000000003,-0.2851,-0.6303000000000001,-0.5868
many,0.6979000000000001,0.0823,0.0415,-0.507,-0.158,0.36050000000000004,-1.0745,-0.2393,-0.747,0.16010000000000002,-0.1842,-0.07970000000000001,0.3204,-0.2033,0.5959,-0.0675,0.3427,-0.0546,0.0618,-1.0285,-0.019100000000000002,0.0653,0.4233,0.4562,0.20550000000000002,-1.2436,-1.1895,-0.6646000000000001,-0.049300000000000004,-0.26780000000000004,4.0103,0.44570000000000004,0.4042,-1.0601,0.28290000000000004,0.3672,-0.401,-0.0439,-0.5099,0.3947,-0.6871,0.1932,0.46340000000000003,0.9171,0.4955,0.1565,-0.8674000000000001,0.0373,-0.6044,-0.647
while,0.10110000000000001,-0.16570000000000001,0.2204,-0.1063,0.4693,0.37970000000000004,-0.6282,-0.1438,-0.38330000000000003,0.055400000000000005,0.2351,-0.21,-0.554,-0.38270000000000004,0.2101,0.0216,-0.2305,-0.1358,-0.6164000000000001,-0.46780000000000005,0.25720000000000004,0.6231,0.38370000000000004,-0.2566,0.09040000000000001,-1.5184,0.4762,-0.0896,0.0253,-0.2597,3.6121,0.6279,0.1539,-0.0627,0.28700000000000003,-0.1647,-0.2079,0.44070000000000004,0.0654,-0.10300000000000001,-0.1549,0.2735,0.3836,-0.098,0.107,-0.08310000000000001,-0.2717,-0.4944,0.043500000000000004,-0.3914
where,0.6924,0.44970000000000004,-0.2029,-0.1678,0.305,-0.48760000000000003,-0.6903,0.1816,-0.163,-0.4748,-0.0033,-0.6521,-0.1015,-0.5751000000000001,0.3019,0.3564,0.2863,0.4737,-0.7146,-0.0189,0.171,0.271,0.1907,0.7633000000000001,-0.1759,-1.7981,-0.3372,0.2732,0.0541,-0.5235000000000001,3.4908,-0.027600000000000003,-0.23950000000000002,-0.8698,0.2661,0.088,-0.1988,0.18530000000000002,0.4325,0.4121,-0.3919,0.2286,0.0734,0.109,-0.23500000000000001,0.1608,-0.0164,-1.0347,-0.2416,-0.4868
because,0.529,-0.3014,0.0562,-0.179,0.1567,0.3294,-0.4591,0.37410000000000004,-0.0728,0.2611,0.3634,0.23120000000000002,-0.3808,-0.3568,1.0069,0.8395,0.0747,-0.1356,-0.1017,-0.7086,-0.3825,0.0081,0.266,-0.0146,0.1663,-2.2449,-0.454,0.3259,0.8289000000000001,-0.0985,3.7015000000000002,0.28390000000000004,-0.0785,-0.7428,0.0717,-0.24050000000000002,0.153,0.16140000000000002,0.0344,-0.3062,-0.6654,0.1598,0.1756,0.7578,-0.0129,-0.08030000000000001,-0.49510000000000004,0.068,-0.10930000000000001,0.1716
now,0.40990000000000004,0.0814,0.29960000000000003,-0.2535,0.3007,-0.23570000000000002,-0.8924000000000001,-0.232,-0.2437,-0.1419,0.026500000000000003,-0.0936,-0.5172,-0.3612,0.6051000000000001,0.6627000000000001,0.3045,0.4486,-0.092,-0.0692,-0.1058,0.109,0.1033,0.3437,-0.0419,-1.9213,-0.3336,0.1612,0.0848,-0.2899,3.5443,0.2602,-0.0235,-0.394,0.0369,-0.3226,-0.1501,0.4898,0.1631,-0.4425,-0.44060000000000005,-0.0432,0.2336,0.2823,-0.4349,0.40290000000000004,-0.47850000000000004,-0.332,-0.3991,0.1306
city,0.4394,0.43270000000000003,-0.3665,0.2778,0.0629,-0.802,-0.9304,0.0164,-0.5503,-0.1628,-0.4035,-1.3975,0.32080000000000003,-0.8895000000000001,-0.1885,0.11520000000000001,0.0453,0.8300000000000001,-0.876,0.7765000000000001,0.5595,0.0747,-0.8467,0.4098,-0.5977,-2.062,-0.1589,0.5798,0.2827,-1.0213,3.2488,0.5003000000000001,0.11560000000000001,-1.1707,0.1902,0.3689,-0.042,0.028200000000000003,0.5412,0.8489,-0.6671,0.608,0.2379,-0.6538,-0.7055,0.5165000000000001,-1.078,-0.7152000000000001,0.484,-0.3256
made,0.14200000000000002,0.0046,-0.4005,0.0766,0.27080000000000004,0.6196,-0.849,-0.30410000000000004,-0.5859,0.0925,-0.0346,0.4575,-0.4295,-0.0446,0.3841,-0.09680000000000001,-0.0482,-0.2652,-0.5019,-0.5138,0.1938,0.1507,0.43170000000000003,-0.8624,0.0597,-1.5264,-0.11800000000000001,0.1915,0.10060000000000001,-0.4934,3.388,0.047400000000000005,-0.2738,0.0369,0.43810000000000004,0.2811,0.40340000000000004,0.877,-0.4056,-0.15660000000000002,0.0855,0.3669,-0.0813,-0.329,-0.06960000000000001,0.10250000000000001,-0.6157,0.2777,0.0333,-0.2492
like,0.36810000000000004,0.2083,-0.2232,0.0463,0.201,0.2752,-0.7713,-0.768,-0.3486,0.5062,-0.244,0.7178,-0.3335,0.3755,0.4476,0.367,0.4353,0.4757,-0.056100000000000004,-0.9353,-0.27590000000000003,0.3161,0.2212,0.363,0.1076,-1.7638,-1.2624,0.3028,0.5629000000000001,-1.0214,3.2353,0.4848,0.028,0.0361,-0.0786,0.18760000000000002,-0.5257000000000001,0.037200000000000004,0.2758,-0.07740000000000001,-0.2796,0.7975,0.0016,0.45480000000000004,0.8838,0.4389,-0.19260000000000002,-0.6724,-0.3971,0.2518
between,0.7503000000000001,0.7162000000000001,-0.27030000000000004,0.2006,-0.1701,0.6857000000000001,-0.061700000000000005,-0.0546,-0.864,-0.614,-0.1105,-0.38830000000000003,-0.657,-0.5199,-0.11220000000000001,0.3522,-0.062400000000000004,-0.13670000000000002,-0.7492000000000001,0.295,0.646,-0.046,0.6761,0.43920000000000003,-0.1193,-1.2565,0.6185,-0.0579,0.1177,0.45170000000000005,3.8217,0.19940000000000002,-0.30560000000000004,-0.3612,0.16010000000000002,-0.6227,-0.8308000000000001,-0.032600000000000004,-0.4838,0.6063000000000001,-0.2285,-0.07390000000000001,0.0526,0.0396,-0.7232000000000001,0.11040000000000001,0.3569,-0.2617,-0.673,-0.8704000000000001
did,0.0425,-0.2117,0.044700000000000004,-0.1925,0.2622,0.0044,-0.882,0.5518000000000001,-0.6494,-0.1751,0.12250000000000001,0.6836,-0.8214,-0.3584,0.9664,0.5487000000000001,0.0659,-0.4903,-0.263,-0.6674,-0.2046,0.3796,0.5225000000000001,-0.2631,0.4083,-2.2215,-0.5848,-0.2606,0.30960000000000004,-0.9576,3.0448,0.37220000000000003,-0.68,-0.604,0.1302,-0.295,0.5181,0.29610000000000003,0.19790000000000002,-0.1542,-0.22710000000000002,0.1638,-0.09290000000000001,0.2265,0.0362,-0.0059,-0.3413,0.121,-0.24,0.4666
just,0.177,0.06520000000000001,0.28550000000000003,-0.4243,0.7499,-0.1489,-0.6679,0.1179,-0.4541,0.1854,-0.6511,-0.4344,-0.601,-0.11320000000000001,0.8522000000000001,0.2533,0.3133,0.0591,-0.8875000000000001,-0.4655,-0.301,0.7069000000000001,0.45080000000000003,0.1471,0.6895,-1.849,-0.2301,0.6738000000000001,1.0314,-0.8230000000000001,3.6701,0.6259,-0.1767,0.2247,-0.0291,-0.2575,0.12940000000000002,0.44480000000000003,0.5281,-0.35910000000000003,-0.2781,0.20670000000000002,0.0762,0.322,-0.40590000000000004,0.232,0.2091,-0.2978,0.11040000000000001,0.22060000000000002
day,0.1163,0.539,-0.3951,-0.26030000000000003,0.5771000000000001,-0.792,-0.8837,0.3012,0.0829,-0.33440000000000003,-0.6447,-0.7537,-0.30360000000000004,0.07880000000000001,1.2252,-0.0386,-0.47340000000000004,-0.4056,-1.1165,-0.21350000000000002,0.4928,0.5557,0.3894,-0.22510000000000002,0.37770000000000004,-1.4233,-0.1341,0.10740000000000001,0.1653,0.3553,3.5733,0.764,-0.5923,0.5137,0.1206,-0.36970000000000003,0.4325,0.0864,0.0346,0.0825,-0.8792000000000001,0.26130000000000003,-0.32130000000000003,-0.1265,0.25570000000000004,0.3282,0.0241,-0.3906,-0.10880000000000001,0.0845
country,-0.1353,0.15480000000000002,-0.0731,0.034,-0.0545,-0.2054,-0.6009,-0.22410000000000002,0.4262,0.041800000000000004,0.1217,-0.5582,-0.08950000000000001,0.0089,0.5916,0.3433,0.648,0.3005,0.4849,0.1652,-0.0737,0.3118,-0.0838,0.27030000000000004,0.1072,-1.7704,-0.3624,-0.15810000000000002,0.06,0.6787000000000001,4.0124,0.4309,-0.2632,0.056100000000000004,-0.4005,-0.08850000000000001,-0.5534,-0.1789,-0.5737,-0.1963,-1.1624,0.12140000000000001,0.5584,-0.6194000000000001,-0.2097,0.499,-1.0743,-0.028200000000000003,-0.189,-0.6769000000000001
under,0.13720000000000002,-0.295,-0.0592,-0.5924,0.023,0.21880000000000002,-0.3425,-0.7021000000000001,-0.5575,-0.7854,0.4642,0.44730000000000003,-0.7418,-0.46290000000000003,0.42660000000000003,0.398,-0.2177,0.0263,-0.3135,0.0785,0.28500000000000003,0.11670000000000001,0.2998,-0.9138000000000001,-0.47740000000000005,-1.6573,0.0074,-0.11220000000000001,-0.106,0.2989,3.4634,-0.2934,-0.7678,-0.3012,-0.0037,0.23120000000000002,0.4733,0.1308,0.0502,0.1991,-0.5018,-0.0034000000000000002,0.3865,0.0574,-1.0157,-0.33990000000000004,-0.6197,-0.5971000000000001,-0.11380000000000001,-0.642
such,0.6101,0.3351,-0.535,0.3614,-0.3987,0.7063,-0.187,-0.7725000000000001,-0.034800000000000005,0.6607000000000001,0.082,0.7928000000000001,0.057100000000000005,-0.1895,0.1752,0.1394,0.31920000000000004,-0.0757,0.12430000000000001,-1.063,0.2894,-0.2967,0.1121,0.0736,-0.22210000000000002,-1.255,-1.0307,-0.468,0.23850000000000002,-0.2116,3.8345000000000002,0.16840000000000002,0.0189,-0.9855,0.097,0.26430000000000003,-0.18380000000000002,-0.22390000000000002,-0.5328,0.42,-0.11030000000000001,0.4218,0.27340000000000003,0.496,0.792,0.24130000000000001,-0.4172,0.28290000000000004,-0.2828,0.0847
second,-0.29810000000000003,0.2807,0.08710000000000001,0.5446,0.7000000000000001,0.44780000000000003,-0.7256,0.6231,0.0007,-0.0211,0.2528,-0.5576,-1.0997,0.039400000000000004,0.5267000000000001,-0.6302,-0.18660000000000002,-0.7928000000000001,-1.5962,0.25620000000000004,-0.19390000000000002,-0.431,-0.17200000000000001,-0.1613,0.151,-1.6053000000000002,0.1587,-0.4434,-0.1358,-0.0438,3.4702,0.14120000000000002,-0.1139,0.5451,0.45890000000000003,-0.18560000000000001,0.5609000000000001,0.8796,0.0005,-0.5713,-0.1178,-0.1359,-0.3894,-0.7927000000000001,-0.5733,0.3821,0.45580000000000004,-0.484,0.3497,-0.29910000000000003
then,0.1956,-0.3277,0.0616,-0.6156,0.5571,0.13190000000000002,-0.6402,0.5947,-0.5603,-0.397,0.2823,0.40590000000000004,-0.7674000000000001,-0.12290000000000001,0.3146,0.28,-0.1686,-0.15760000000000002,-0.8144,-0.2285,0.3412,0.13390000000000002,0.7996000000000001,0.10830000000000001,0.2931,-2.0116,0.4481,0.2242,0.2891,-0.7811,3.3622,-0.0505,-0.5573,-0.2944,0.0726,0.058600000000000006,0.22790000000000002,0.6737000000000001,0.4898,-0.1092,0.1565,0.132,-0.5628000000000001,-0.0727,-0.588,0.0441,0.25780000000000003,-1.0728,-0.08850000000000001,-0.31420000000000003
company,0.6258,-0.577,0.4116,0.8681000000000001,-0.08310000000000001,0.2656,-1.48,-0.3879,0.4273,0.1168,0.7839,0.8135,-0.7876000000000001,-0.6544,-0.09920000000000001,0.2066,-0.7332000000000001,0.8642000000000001,-0.2692,-0.9379000000000001,1.919,-0.17470000000000002,-0.619,-0.5035000000000001,-0.9341,-1.6755,-0.794,-0.32,-0.06770000000000001,-0.12340000000000001,3.2909,-0.4315,0.3879,0.38730000000000003,-0.0184,-0.9819,-0.5319,0.3987,0.8945000000000001,-0.4096,0.5892000000000001,-0.5238,0.27890000000000004,-0.2577,-0.30460000000000004,-0.0663,-1.1221,0.21580000000000002,-0.1559,0.6402
any,0.5129,0.0903,0.0236,0.2144,0.7023,0.5623,0.1184,0.2564,-0.0397,0.0954,-0.0155,0.3781,-0.16160000000000002,-0.1832,0.8073,0.521,0.4017,-0.5168,-0.0563,-0.9521000000000001,0.042800000000000005,-0.0824,0.23870000000000002,-0.1078,0.126,-2.033,-0.4864,-0.0189,1.0034,-0.1655,3.8562000000000003,0.1082,-0.8123,-0.8206,0.09820000000000001,-0.0253,0.2798,-0.28040000000000004,-0.40590000000000004,-0.1418,0.0028,-0.0463,0.0932,0.9383,-0.039400000000000004,-0.35660000000000003,-0.33990000000000004,1.1585,0.298,0.075
through,0.6492,0.0684,0.0317,-0.5148,-0.5281,-0.068,-0.8079000000000001,-0.08070000000000001,0.5254,-0.0205,-0.2622,-0.0779,-0.5421,-0.0045000000000000005,-0.1883,-0.0584,-0.10830000000000001,-0.3297,-0.3794,-0.30560000000000004,0.7448,0.18280000000000002,0.3154,0.1852,0.326,-1.4627,0.2947,0.29810000000000003,0.3911,-0.7186,3.9504,0.32220000000000004,-0.117,-0.578,-0.3564,0.2902,-0.4163,0.26990000000000003,0.2364,0.2504,-0.0748,-0.1193,-0.1257,0.2544,-0.605,-0.1268,0.7026,-0.8136,-0.2975,-0.8096
four,0.33380000000000004,0.4481,0.5476,0.215,0.3264,0.7033,-0.9587,0.057800000000000004,-0.4345,-0.5532,-0.4048,-0.6579,-0.7508,0.581,0.5197,-0.8661000000000001,-0.1003,-0.11610000000000001,-1.2668,-0.46130000000000004,-0.1042,0.1389,0.7045,-0.0041,-0.5648000000000001,-0.998,0.3013,-0.5374,-0.4207,-0.49520000000000003,3.9051,0.4325,0.0171,0.3149,1.2546,0.5246000000000001,0.46230000000000004,0.2962,-0.2388,0.1291,-0.7552,-0.06570000000000001,0.5259,0.2005,-0.1598,0.1829,-0.2997,-0.19260000000000002,-0.3017,-0.8044
being,0.5905,-0.6608,-0.025500000000000002,-0.6622,0.3834,0.31520000000000004,-0.8265,0.14880000000000002,-0.3643,0.015300000000000001,0.5174,0.27390000000000003,-0.42350000000000004,-0.10690000000000001,0.6564,0.13720000000000002,-0.0111,0.3891,-0.5475,-0.1592,-0.26030000000000003,0.3774,0.8359000000000001,0.1631,0.013600000000000001,-2.0174,-0.1511,0.49920000000000003,0.1841,-0.171,3.5601000000000003,-0.3512,0.2464,-0.9457000000000001,0.2215,0.2278,0.5664,0.4146,-0.5843,-0.3957,-0.2641,-0.1825,0.0002,0.47700000000000004,-0.15760000000000002,-0.43370000000000003,-1.0655000000000001,-0.4174,0.0864,-0.38970000000000005
down,-0.1981,-0.7085,0.8586,-0.4811,0.5156000000000001,-0.2892,-0.6431,-0.4197,-0.6872,-0.1231,-0.4459,-0.3523,-0.8483,0.1296,0.2,0.4892,-0.2026,-0.5334,-0.962,-0.6768000000000001,0.6981,0.506,0.2401,-0.7281000000000001,0.114,-1.8256000000000001,0.8098000000000001,0.6501,0.7311000000000001,-0.5032,3.5865,0.30910000000000004,-0.1428,0.6753,-0.0741,-0.45270000000000005,-0.28,-0.2038,0.6104,-0.24880000000000002,-0.4741,0.2592,0.4152,0.1524,0.0932,-0.09190000000000001,0.40080000000000005,-0.9027000000000001,0.3019,-0.8986000000000001
war,0.3654,-0.1575,-0.23970000000000002,-1.0307,-0.0707,0.214,-0.0419,0.28450000000000003,-0.608,-1.1451,-0.32880000000000004,-0.20470000000000002,-0.8188000000000001,-0.5099,0.6419,-0.5416000000000001,0.019100000000000002,0.18780000000000002,-0.6669,0.9369000000000001,0.0347,-0.0446,-0.0145,-0.7687,-0.20770000000000002,-2.551,-0.9628000000000001,-0.6113000000000001,1.2183,1.1249,3.0499,-0.38820000000000005,-1.0091,-0.4716,-0.5674,0.5307000000000001,-0.6175,-0.6158,-1.1875,-0.21180000000000002,-0.5049,-0.2484,0.5385,-0.9808,0.0898,0.2467,-0.3397,0.0114,-1.4997,-0.3991
back,0.0046,-0.25680000000000003,0.3532,-0.8270000000000001,0.099,-0.2752,-1.2297,0.3734,-0.4464,-0.36970000000000003,-0.1242,0.2084,-1.1801,0.0456,0.4746,0.4056,0.046,-0.6281,-0.7082,-0.4228,-0.2401,0.44870000000000004,0.1476,-0.17300000000000001,0.3195,-2.0483,0.4304,0.44570000000000004,0.528,-0.7294,3.5192,0.7201000000000001,-0.1986,0.42860000000000004,0.029400000000000003,0.15910000000000002,-0.16060000000000002,0.34790000000000004,0.3546,-0.5314,-0.28750000000000003,0.356,-0.084,-0.0064,-0.3299,0.0553,0.5061,-0.8084,-0.3302,-0.6264000000000001
off,0.4534,-0.7104,0.25830000000000003,-0.0158,0.14650000000000002,0.031400000000000004,-1.0812,0.3189,0.0553,-0.1268,-0.4567,0.03,-0.8198000000000001,0.5507000000000001,0.1552,-0.018500000000000003,0.07440000000000001,-0.5672,-1.5538,-0.6028,0.161,0.4549,0.1739,-0.242,0.38420000000000004,-1.9726,1.013,0.8081,0.8833000000000001,-0.9352,3.5564,0.5633,0.0366,0.9406,0.045700000000000005,0.013300000000000001,-0.2762,0.1487,0.3715,-0.1577,-0.3346,0.7152000000000001,0.24450000000000002,0.088,-0.11460000000000001,0.1393,0.33380000000000004,-0.8446,0.2427,-0.6645
south,-0.0397,0.47100000000000003,-0.311,0.3809,-0.5925,-0.38230000000000003,-0.6888000000000001,0.1525,0.463,-0.9099,-0.3866,-0.8270000000000001,0.0359,-0.9349000000000001,-0.8232,0.3754,0.932,0.191,-1.01,0.5953,-0.18180000000000002,0.34690000000000004,0.0965,0.48150000000000004,0.19390000000000002,-1.9725000000000001,0.7776000000000001,0.1626,-0.6900000000000001,-0.12240000000000001,3.5077,-0.2394,0.1259,0.2298,0.5462,-0.7428,-0.3052,-0.2,-0.7765000000000001,-0.13620000000000002,-0.5488000000000001,0.0687,0.8831,-1.0529,0.18610000000000002,0.8858,-0.43660000000000004,-0.4955,-0.1056,-0.7782
well,0.27690000000000003,0.2874,-0.2994,-0.1996,0.1296,0.15560000000000002,-0.6452,-0.34090000000000004,-0.1183,0.158,0.13970000000000002,0.2487,-0.159,-0.0334,0.11900000000000001,0.0765,0.4526,0.2649,-0.19160000000000002,-0.5677,0.029300000000000003,0.2174,0.43410000000000004,0.14980000000000002,0.0758,-1.4453,-0.5839,-0.0461,0.06620000000000001,-0.2642,3.965,0.252,0.24860000000000002,-0.5052,0.2581,0.2868,-0.1799,0.6288,-0.12040000000000001,-0.042100000000000005,-0.0449,0.18560000000000001,0.1627,-0.0026000000000000003,0.1308,0.2018,-0.2967,-0.09480000000000001,-0.21250000000000002,0.0221
week,0.2501,-0.034,0.0941,0.3234,-0.0165,-0.6321,-1.2778,0.3226,-0.1411,-0.29,-0.7388,-1.0599,-0.6915,0.067,1.4545,0.2447,-0.7986000000000001,-0.8467,-0.81,-0.10350000000000001,0.5937,0.47800000000000004,0.3372,-0.4284,-0.3413,-1.8441,0.3073,0.296,-0.4052,0.3416,3.4163,0.44770000000000004,-0.43270000000000003,0.1254,0.055600000000000004,-0.5740000000000001,0.181,0.09230000000000001,0.0726,-0.4837,-0.7181000000000001,0.3952,-0.1291,-0.25520000000000004,0.4102,0.19540000000000002,-0.12,0.8398,-0.2912,0.0787
still,0.47690000000000005,-0.07640000000000001,0.3677,-0.3947,0.4717,-0.0381,-0.7833,0.1481,-0.3004,-0.0727,-0.0309,-0.1683,-0.5357000000000001,-0.1643,0.7873,0.5206000000000001,0.1554,-0.0074,-0.0546,-0.6647000000000001,-0.5197,0.4042,0.24550000000000002,-0.0038,0.35100000000000003,-1.8132000000000001,-0.5192,0.5043,0.4955,-0.085,3.5993,0.29350000000000004,0.2649,-0.3608,-0.0134,-0.1153,-0.19460000000000002,0.31920000000000004,0.014400000000000001,-0.42450000000000004,-0.5602,0.023100000000000002,0.3116,0.4471,0.0391,0.2388,-0.457,-0.10110000000000001,-0.3891,-0.3715
both,0.2571,0.253,-0.0825,0.12040000000000001,0.1935,0.6639,-0.4521,-0.0847,-0.5759000000000001,-0.0055000000000000005,0.3564,0.19870000000000002,-0.6831,-0.1514,-0.0932,0.1143,0.27490000000000003,-0.23500000000000001,-0.21680000000000002,-0.6123000000000001,-0.1915,0.1966,0.5146000000000001,0.16770000000000002,0.033600000000000005,-1.4032,-0.0772,-0.3246,-0.32380000000000003,-0.2325,3.6787,0.3433,0.1608,-0.7593000000000001,0.3693,-0.1034,-0.06280000000000001,0.4708,-0.6478,-0.055200000000000006,-0.09670000000000001,0.1199,0.1405,0.0183,-0.054400000000000004,0.12610000000000002,-0.4061,-0.0959,-0.3574,-0.1794
even,0.3834,-0.0959,0.1223,-0.5162,0.3491,0.1705,-0.5537000000000001,-0.0017000000000000001,-0.4781,0.43860000000000005,-0.2518,0.1635,-0.22390000000000002,-0.018000000000000002,0.8064,0.4259,0.14930000000000002,-0.196,-0.0971,-0.9743,-0.3209,0.1531,0.2685,-0.0112,0.3849,-2.0684,-0.7272000000000001,0.31920000000000004,0.7871,-0.2296,3.5621,0.5346000000000001,-0.0132,-0.5381,-0.017400000000000002,-0.14830000000000002,-0.2076,0.39230000000000004,-0.30360000000000004,-0.44830000000000003,-0.4843,0.3936,0.1097,0.727,0.1032,0.0606,-0.2681,-0.056400000000000006,-0.34690000000000004,0.133
high,-0.6576000000000001,1.2502,0.1908,-0.6742,-0.1013,-0.046900000000000004,-0.2765,-0.48250000000000004,0.3925,0.3704,-0.2411,-0.6429,0.2768,-0.6242,-0.522,0.298,-0.1996,0.3688,-0.8169000000000001,-0.48860000000000003,0.11510000000000001,0.0661,-0.388,-0.1824,-0.5759000000000001,-1.8776000000000002,0.6105,0.4343,-0.09050000000000001,0.1772,3.4808,0.0267,0.6049,-0.7885000000000001,1.248,-0.3286,-0.1553,0.1287,0.6589,-0.273,-0.6986,0.46950000000000003,0.1962,0.40440000000000004,0.062,0.0461,0.7204,-0.45640000000000003,-0.19090000000000001,0.0994
part,0.705,0.1826,-0.7519,0.0039000000000000003,-0.0534,0.2962,-0.4238,-0.0131,0.16570000000000001,-0.4393,0.0751,-0.1626,-0.26630000000000004,-0.4045,-0.09820000000000001,0.1422,0.34550000000000003,0.3634,-0.405,0.35910000000000003,0.37460000000000004,-0.3398,-0.2469,0.3355,-0.3619,-1.7587000000000002,-0.7234,0.1427,-0.0998,-0.1607,3.6203000000000003,-0.2528,-0.2472,-0.5317000000000001,-0.051000000000000004,0.0172,-0.1207,-0.0216,-0.3618,-0.0862,-0.3211,-0.16620000000000001,-0.2044,-0.4612,-0.8504,0.16190000000000002,-0.1428,-0.13140000000000002,-0.4121,-0.0921
told,0.3763,0.0587,0.17,0.4686,0.9580000000000001,-0.8203,-0.8368,0.5332,-0.22660000000000002,-1.1505,0.11030000000000001,0.22660000000000002,-0.8068000000000001,0.122,0.9129,0.39,-0.005200000000000001,0.11370000000000001,0.4546,-0.1174,-0.07440000000000001,1.5088,0.4666,0.046,0.6856,-2.2872,-0.08170000000000001,0.5556,-1.1222,-0.0429,2.5651,-0.12140000000000001,-0.42660000000000003,-0.1173,-0.518,-0.5168,0.5812,-0.20620000000000002,0.6707000000000001,0.8228000000000001,0.2131,1.3662,-0.1869,-0.785,0.7326,-0.5187,-1.5369000000000002,0.8491000000000001,0.5159,0.8764000000000001
those,0.651,0.0026000000000000003,0.458,-0.4806,0.3846,0.5675,-0.44010000000000005,-0.4439,-0.5388000000000001,0.1703,-0.272,0.11,-0.0646,-0.2738,0.8027000000000001,0.2374,0.0732,-0.4172,0.2082,-0.9723,-0.1303,0.3294,0.8548,-0.1588,-0.036000000000000004,-1.4057,-0.8052,-0.36860000000000004,0.5234,-0.6443,3.819,0.9264,0.0344,-0.8516,0.3965,0.0286,-0.1341,-0.058,-0.3791,0.0998,-0.7804,0.11370000000000001,0.7603000000000001,0.9011,0.0954,-0.046400000000000004,-0.7663000000000001,0.2157,-0.3297,-0.1894
end,-0.0412,0.22240000000000001,-0.11460000000000001,-0.33630000000000004,0.038900000000000004,-0.0668,-0.5831000000000001,-0.19970000000000002,-0.5109,-0.2904,-0.4918,-0.1353,-1.0737,-0.4156,0.8184,0.47900000000000004,0.0789,-0.6032000000000001,-0.5732,0.0656,0.2112,-0.2091,-0.273,-0.21330000000000002,-0.0772,-1.4695,0.4641,0.1222,0.8024,0.258,3.7452,0.1429,-0.5156000000000001,0.3466,0.1278,-0.219,0.1512,-0.2969,-0.3794,-0.4193,-0.7401,-0.105,-0.3176,-0.2389,-0.4061,0.24250000000000002,0.5583,-0.1801,-0.3733,-0.1804
former,-0.5353,0.5454,0.1116,0.5978,0.30460000000000004,0.1948,-1.2582,0.32170000000000004,-0.8995000000000001,-0.9437000000000001,-0.0071,0.3025,-0.9626,0.2151,0.12340000000000001,-0.24150000000000002,0.13190000000000002,0.7098,0.054,0.4793,-0.4879,0.40950000000000003,-0.5078,0.12710000000000002,-1.2259,-2.6958,0.3952,-0.4661,-1.1562000000000001,0.6446000000000001,2.3830999999999998,-0.5404,-0.5875,-0.5978,0.21630000000000002,0.36760000000000004,-0.47200000000000003,0.1199,0.26030000000000003,-0.5585,-0.1763,1.0493,-0.366,-0.33530000000000004,0.094,-0.0703,-1.4673,-0.4651,-0.22690000000000002,-0.1285
these,1.0074,0.18910000000000002,-0.1173,-0.3653,-0.0516,0.5412,-0.1531,-0.5273,-0.4802,-0.0073,-0.09820000000000001,0.7238,0.0625,-0.1221,0.24680000000000002,0.2005,0.4076,-0.339,0.046200000000000005,-1.1647,0.11040000000000001,-0.4056,0.9729000000000001,0.1321,0.1794,-0.8565,-1.2987,-0.4408,0.5329,-0.5479,4.1549,0.231,0.15860000000000002,-1.3329,0.3341,0.4625,0.012100000000000001,-0.16790000000000002,-0.7096,0.3801,-0.47240000000000004,-0.3074,0.5357000000000001,0.9575,0.2746,0.163,-0.2238,0.1291,-0.3995,-0.2577
make,0.5549000000000001,-0.0487,0.07150000000000001,-0.07150000000000001,0.41150000000000003,0.18030000000000002,-0.4844,-0.0359,-0.153,0.4359,-0.30610000000000004,0.402,-0.0143,0.1525,0.5554,0.44780000000000003,0.7588,-0.2043,0.25570000000000004,-1.0264,0.1222,-0.0371,0.1476,-0.08700000000000001,0.271,-1.6697000000000002,-0.4042,-0.226,0.7748,-0.8512000000000001,3.7960000000000003,0.8332,-0.7865000000000001,-0.037700000000000004,0.223,0.0714,0.0067,0.5719000000000001,-0.2184,-0.5835,-0.21030000000000001,0.1189,0.30610000000000004,0.32980000000000004,0.11960000000000001,0.307,-0.18080000000000002,0.4535,-0.08660000000000001,0.4042
work,0.5136000000000001,0.19690000000000002,-0.5194,-0.8622000000000001,0.0155,0.1097,-0.8029000000000001,-0.3336,-0.0002,0.0102,0.046700000000000005,0.4675,-0.4748,0.11040000000000001,0.39330000000000004,-0.4365,0.39980000000000004,0.2711,0.42650000000000005,-0.6064,0.8114,0.45630000000000004,-0.1273,-0.2247,0.6407,-1.2767,-0.7223,-0.6959000000000001,0.028,-0.23070000000000002,3.7996,-0.1262,-0.4797,-0.9997,-0.21980000000000002,0.5056,0.026000000000000002,0.8051,0.1993,0.28800000000000003,-0.1592,-0.3044,0.1602,-0.1829,-0.0386,-0.1762,0.027,0.0468,-0.629,0.3573
our,0.3466,0.40690000000000004,-0.079,-0.5707,1.1977,-0.5146000000000001,-0.2388,-0.034300000000000004,0.5713,-0.2741,0.0736,0.7526,-0.7283000000000001,0.0714,-0.0531,0.4025,0.46030000000000004,-0.034300000000000004,0.8587,-0.8339000000000001,-0.25570000000000004,0.6483,0.0048000000000000004,-0.3321,0.6432,-1.8139,-1.1584,-0.132,1.1031,-0.3769,3.9004000000000003,1.4353,-0.5437000000000001,-0.5553,-0.4973,0.12040000000000001,-0.44880000000000003,-0.107,-0.18780000000000002,-0.211,-0.4642,-0.6911,0.1753,0.38370000000000004,-0.0111,0.33080000000000004,-0.3794,0.3138,-0.1825,0.10830000000000001
home,0.233,0.45880000000000004,0.266,0.038200000000000005,0.5669000000000001,-0.5119,-1.7831000000000001,0.4307,0.0013000000000000002,0.0179,-0.5155000000000001,-0.5447000000000001,-0.25120000000000003,-0.3763,0.4097,0.0704,-0.2612,-0.0028,-0.5136000000000001,0.2983,0.145,0.5375,-0.6244000000000001,0.4138,-0.22010000000000002,-1.6277,0.2903,-0.018500000000000003,0.51,-0.6123000000000001,3.238,0.7487,0.1884,0.0222,0.5782,0.5202,0.1529,0.41600000000000004,0.5526,-0.4037,-0.1806,0.2091,-0.23870000000000002,0.11280000000000001,-0.007500000000000001,0.5792,-0.4364,-0.809,0.2041,-0.1953
party,-0.5527000000000001,-0.18330000000000002,0.41150000000000003,0.18710000000000002,0.32370000000000004,0.8140000000000001,-0.25830000000000003,-0.038,-1.2893,-0.6939000000000001,-0.43520000000000003,-0.8442000000000001,-0.4435,0.8177000000000001,-0.4227,-0.2582,0.22240000000000001,-0.245,0.7486,-0.1884,-0.20800000000000002,-0.1096,0.4305,0.3488,0.0047,-1.8722,-0.45690000000000003,-0.5902000000000001,-1.0799,0.891,3.2906,0.6093000000000001,-1.8394,-0.0014,-1.2088,-0.5424,-0.20400000000000001,-0.0106,-0.4782,-0.3589,-0.43410000000000004,0.10940000000000001,-1.5387,-0.1061,-0.30510000000000004,0.0014,-1.9332,-0.4289,1.0175,-0.5993
house,0.6014,0.2852,-0.032,-0.4303,0.7481,0.2622,-0.9736,0.0786,-0.5759000000000001,-1.188,-1.8507,-0.2489,0.0555,0.0086,0.068,0.4055,-0.074,-0.2132,0.37170000000000003,-0.7179,1.2234,0.35550000000000004,-0.41540000000000005,-0.21930000000000002,-0.3966,-1.7831000000000001,-0.4151,0.2953,-0.41250000000000003,0.0201,2.7425,-0.9926,-0.7103,-0.4681,0.2826,-0.0776,0.30410000000000004,-0.0664,0.3951,-0.7075,-0.3889,0.2316,-0.49510000000000004,0.1461,-0.023100000000000002,0.5639000000000001,-0.8619,-1.0278,0.039900000000000005,0.20020000000000002
old,-0.4853,0.9838,-0.2903,-0.33080000000000004,0.7467,0.5992000000000001,-1.4261,0.0849,-0.2533,-0.108,-0.0736,-0.2404,-0.6001000000000001,0.2772,0.6128,0.07730000000000001,-0.48,0.507,0.1302,0.6652,-0.8458,0.9411,-1.0953,0.4036,0.1651,-2.5206,-0.16820000000000002,0.2054,0.20470000000000002,0.07440000000000001,2.7209,-0.709,-0.0495,0.963,0.7211000000000001,0.5529000000000001,-0.1386,0.598,0.5836,-0.42160000000000003,-0.2174,0.3612,0.18280000000000002,0.3306,0.5875,0.1003,-0.1622,-0.9594,0.038400000000000004,-0.733
later,0.43670000000000003,-0.0551,-0.18780000000000002,-0.4187,-0.0359,0.2403,-1.2174,0.39,-0.8019000000000001,-0.44,0.46900000000000003,0.4315,-0.794,-0.3252,0.5626,0.014100000000000001,-0.7527,-0.2726,-0.9521000000000001,0.28240000000000004,0.49570000000000003,0.24680000000000002,0.5759000000000001,-0.17420000000000002,0.1652,-1.7485,-0.1366,-0.17400000000000002,-0.434,-0.20420000000000002,3.0914,-0.6491,-0.18330000000000002,-0.582,0.2914,0.1273,0.5774,0.30820000000000003,-0.0974,0.0178,0.031400000000000004,0.0097,-0.59,-0.6016,-0.2732,-0.023100000000000002,-0.2561,-0.6963,-0.2053,-0.5019
get,0.15910000000000002,-0.21430000000000002,0.631,-0.5995,0.3125,-0.16620000000000001,-0.9055000000000001,0.45120000000000005,0.0516,0.2591,-0.32880000000000004,0.48160000000000003,-0.3498,0.129,1.0758,0.4869,0.5342,0.059800000000000006,0.21660000000000001,-1.1059,-0.2559,0.5746,0.5456,0.3104,0.3776,-2.0337,-0.225,0.1845,0.8259000000000001,-1.1991,3.6042,1.1605,-0.5979,0.13,0.1568,0.1317,0.18510000000000001,0.36310000000000003,0.5754,-0.8959,-0.3637,0.28400000000000003,0.048600000000000004,0.7878000000000001,-0.0873,-0.23390000000000002,-0.1424,0.0212,-0.1422,0.6696000000000001
another,0.5076,0.2632,0.19640000000000002,0.1841,0.9079,0.45270000000000005,-0.5449,0.4182,0.0396,0.061900000000000004,-0.2457,-0.385,-0.3965,0.3216,0.5961000000000001,-0.3997,-0.015700000000000002,0.0742,-0.8315,-0.0193,-0.21330000000000002,0.1287,-0.2541,0.07930000000000001,0.1259,-2.1294,-0.2909,0.0446,0.2735,-0.0375,3.458,-0.34640000000000004,-0.328,0.1757,0.2247,0.08990000000000001,0.24530000000000002,0.07010000000000001,0.2165,-0.4431,0.0252,0.4082,-0.33530000000000004,0.0068000000000000005,0.115,-0.157,-0.0852,0.018600000000000002,0.2612,0.0154
news,-0.2082,0.47790000000000005,0.522,1.0587,-0.1004,-1.1269,-1.2581,-0.11040000000000001,-0.0741,-0.7798,-0.3794,-0.24860000000000002,-0.3922,0.4297,0.9806,0.1267,-1.3772,-0.22790000000000002,-0.185,0.4101,0.9678,0.8916000000000001,0.8468,0.5742,0.4646,-1.7287,-0.6392,0.5626,-0.1265,0.49710000000000004,3.3326000000000002,0.0344,0.4615,-0.44830000000000003,-1.1945000000000001,-0.47590000000000005,-0.31930000000000003,-0.6442,0.0897,0.074,0.7076,0.5295,-0.1203,-0.46780000000000005,0.2472,0.28040000000000004,-0.6263000000000001,1.4458,0.5104000000000001,0.7416
long,0.4696,0.8296,-0.1383,-0.454,-0.0757,0.454,-0.3775,-0.31820000000000004,0.0449,-0.23270000000000002,-0.653,0.0076,-0.5262,0.2975,0.23550000000000001,0.1995,0.17270000000000002,-0.027100000000000003,-0.307,-0.2746,-0.5045000000000001,0.0661,0.0488,-0.37270000000000003,0.28040000000000004,-2.012,0.3244,0.6960000000000001,0.3302,0.0521,3.7978,0.0166,-0.029,0.4046,-0.06760000000000001,-0.3214,-0.42910000000000004,0.3467,-0.40090000000000003,-0.26480000000000004,-0.5493,0.2011,0.12480000000000001,0.5342,-0.1032,-0.5769000000000001,0.2606,-0.3884,-0.8135,-0.08660000000000001
five,0.21130000000000002,0.3683,0.496,0.17880000000000001,0.4329,0.5478000000000001,-0.8752000000000001,-0.0041,-0.2783,-0.40700000000000003,-0.5009,-0.6831,-0.5365,0.45690000000000003,0.7946000000000001,-0.7329,-0.053,-0.301,-1.0922,-0.1516,-0.0408,0.1819,0.7558,-0.09580000000000001,-0.524,-0.9510000000000001,0.3668,-0.67,-0.3654,-0.4204,3.9139,0.4692,0.048100000000000004,0.4918,1.0773,0.4101,0.374,0.3022,-0.042100000000000005,0.1505,-0.9066000000000001,-0.027,0.6076,0.2909,-0.2253,0.1413,-0.357,-0.0889,-0.29610000000000003,-0.725
called,0.6539,0.3471,-0.46740000000000004,0.2354,0.042300000000000004,0.2504,-0.24810000000000001,-0.5254,-0.20400000000000001,-0.0017000000000000001,0.0455,0.40540000000000004,-0.1272,0.37260000000000004,0.09190000000000001,0.24380000000000002,0.31820000000000004,0.1346,-0.0213,-0.0809,-0.1794,-0.3362,0.20140000000000002,0.2979,-0.1721,-1.7568000000000001,-0.5708,0.2994,-0.3145,-0.1509,3.1091,-0.6808000000000001,-0.9945,-0.35750000000000004,-0.366,-0.2177,0.39990000000000003,-0.5443,-0.1259,0.29760000000000003,-0.0427,0.35750000000000004,-0.6781,-0.16240000000000002,0.4433,0.0951,-0.4748,-0.12050000000000001,0.1405,0.3396
1,-0.3231,0.8927,0.5494,0.5929,0.5671,0.3789,-0.0361,-0.1844,-0.6102000000000001,-0.2787,0.19870000000000002,-0.1346,-0.12,-0.8044,0.6903,-0.5686,-0.37870000000000004,0.0229,-1.6365,0.4399,0.2869,-0.9933000000000001,1.2016,0.4091,-1.0473,-0.8057000000000001,0.7807000000000001,-0.298,0.49570000000000003,-0.1852,3.6489000000000003,0.30560000000000004,-0.5989,0.8479,0.30810000000000004,-0.4698,0.5118,0.4465,0.8696,-0.8333,0.9520000000000001,-0.6814,0.5271,-0.9841000000000001,-0.6846,1.1837,0.16570000000000001,-0.34590000000000004,0.49960000000000004,0.4776
way,0.5366000000000001,-0.0119,-0.24980000000000002,-0.3054,0.3395,-0.1096,-0.44210000000000005,0.0099,-0.18150000000000002,0.26730000000000004,-0.4314,0.30660000000000004,-0.6887,0.044500000000000005,0.115,0.355,0.7232000000000001,-0.2174,-0.046900000000000004,-0.6378,-0.12440000000000001,0.4509,-0.10400000000000001,0.1628,0.8138000000000001,-1.9463,-0.39680000000000004,0.2912,0.9059,-0.7754000000000001,3.6326,0.4968,-0.5087,-0.40180000000000005,0.0088,-0.23550000000000001,-0.1942,0.4334,-0.1799,-0.15560000000000002,-0.3456,0.0103,0.0444,0.3312,-0.1572,0.2853,0.1431,-0.23620000000000002,0.06330000000000001,0.1777
used,0.5396000000000001,-0.1373,0.2666,-0.1952,-0.27080000000000004,0.6154000000000001,-0.4052,-0.8305,-0.38880000000000003,0.0653,0.5375,0.6544,0.41590000000000005,-0.0942,-0.2916,0.4087,-0.1424,0.4559,-0.4752,-1.0329,0.33190000000000003,-0.5927,0.4313,-0.0028,-0.2124,-1.5564,-0.5771000000000001,-0.1915,0.5185000000000001,-0.7972,3.4859999999999998,-0.6021000000000001,-0.6916,-0.6334000000000001,0.6374000000000001,0.8227,0.5372,0.3143,-0.2518,0.4747,0.7094,0.2268,0.0651,0.5081,0.5493,-0.09960000000000001,0.0845,-0.1298,-0.0737,-0.4204
much,0.37,0.0828,0.1688,-0.5022,0.3794,0.13340000000000002,-0.32530000000000003,-0.1796,-0.40390000000000004,0.5815,-0.1451,0.1399,-0.15660000000000002,-0.6095,0.6208,0.5596,0.3568,0.2565,-0.33580000000000004,-0.8250000000000001,-0.11900000000000001,0.21830000000000002,0.2776,-0.3819,0.5437000000000001,-1.7705000000000002,-0.7437,0.404,0.8871,-0.021400000000000002,3.7891,0.3995,0.5163,-0.4858,-0.0524,-0.28140000000000004,-0.6042000000000001,0.461,0.1149,-0.497,-0.34500000000000003,0.3864,0.1405,0.4384,-0.33580000000000004,0.1355,-0.1216,0.0053,-0.5085000000000001,0.2499
next,0.3912,0.34990000000000004,0.225,0.11420000000000001,0.3109,-0.5226000000000001,-0.9296000000000001,0.2534,-0.0891,-0.4254,-0.3135,-0.457,-0.6417,0.31930000000000003,1.0812,0.6186,0.0285,-0.342,-0.6827000000000001,-0.253,0.434,-0.2645,-0.0575,0.0083,0.0158,-1.5390000000000001,0.2841,0.1495,-0.07440000000000001,-0.1812,3.5567,0.6355000000000001,-0.7636000000000001,0.215,0.2349,-0.3053,0.46330000000000005,0.6402,0.07730000000000001,-0.8842000000000001,-0.7171000000000001,-0.165,-0.2199,-0.3889,-0.2611,0.5874,0.293,-0.20470000000000002,-0.006,0.1746
game,-0.9096000000000001,-0.16790000000000002,-0.28240000000000004,1.2006000000000001,0.3548,-0.055,-1.2784,0.0565,-0.7309,0.6545000000000001,0.060700000000000004,0.08420000000000001,-1.3827,0.1675,1.1236,-0.521,0.1421,-0.32320000000000004,-1.9348,0.055600000000000004,-0.8957,-0.3121,-0.0034000000000000002,0.0821,0.3297,-1.01,0.11910000000000001,-0.08700000000000001,0.9948,-1.5931000000000002,3.4081,1.0488,0.2039,-0.4384,0.1119,0.8717,0.623,0.6239,-0.2883,-0.9798,-0.017,-0.39830000000000004,-0.972,0.5918,-0.5789000000000001,0.9622,0.7693,0.4025,-0.013600000000000001,0.1874
here,0.1409,0.682,-0.5041,0.38320000000000004,0.6343,-1.1851,-0.4693,0.2864,-0.43220000000000003,-0.554,-0.4454,-0.3755,-0.3705,-0.1056,1.1606,0.4349,0.3803,0.0302,-0.24550000000000002,-0.432,-0.0313,0.5017,0.2771,0.125,0.8288000000000001,-1.7273,-0.3644,0.3034,-0.1782,-0.012400000000000001,3.4775,0.5181,-0.46430000000000005,-0.13340000000000002,-0.2262,-0.2447,0.063,0.5066,-0.3194,0.0799,-0.5447000000000001,0.1945,0.12390000000000001,-0.0553,0.6544,0.4345,-0.4238,0.11080000000000001,0.1101,-0.27090000000000003
?,-0.1458,0.5046,0.0475,-0.4646,0.4425,-0.16770000000000002,-0.4033,-0.3922,-0.41540000000000005,0.27640000000000003,-0.6303000000000001,0.6903,-0.4544,0.0016,1.312,0.5241,0.3738,0.2816,-0.0041,-0.5266000000000001,-0.5706,0.36560000000000004,0.5917,0.3471,0.4501,-2.1454,-1.3795,0.307,1.4876,-0.9631000000000001,2.8403,0.5025000000000001,-0.8675,0.0641,-0.3638,-0.14020000000000002,0.1198,-0.0454,0.7268,-0.4445,-0.2723,0.15030000000000002,0.1149,0.7124,0.1134,0.22840000000000002,-0.0408,-0.4147,0.1105,1.1681
should,0.3514,-0.2416,0.0055000000000000005,-0.434,0.498,-0.1562,0.0852,0.0376,-0.0818,-0.1131,0.30310000000000004,0.7111000000000001,-0.1801,-0.1403,0.7232000000000001,1.1194,0.541,-0.4495,0.6481,-0.8622000000000001,-0.0888,-0.055200000000000006,0.49670000000000003,-0.1405,0.2023,-2.1223,-0.061700000000000005,-0.1888,0.1574,-0.5216000000000001,3.7028,0.7373000000000001,-1.0739,-0.6359,-0.1835,-0.4625,0.3689,0.19460000000000002,-0.0688,-0.32580000000000003,-0.46430000000000005,-0.0965,0.4188,0.5372,-0.0655,0.1492,-0.4842,0.46330000000000005,-0.029400000000000003,0.3436
take,0.6226,0.0719,0.024300000000000002,-0.1257,0.3106,-0.2258,-0.3428,0.5086,-0.1326,-0.0682,-0.21330000000000002,0.2715,-0.4491,0.0766,0.5489,0.5824,0.4681,-0.3486,-0.14850000000000002,-0.8112,0.2672,0.2444,0.0167,0.045700000000000005,0.2378,-1.9723000000000002,-0.06760000000000001,-0.5034000000000001,0.2141,-0.4843,3.5853,1.1371,-1.1428,-0.058800000000000005,0.2457,-0.1627,0.1729,0.1822,0.0188,-0.5232,-0.3446,0.0351,0.2783,0.1842,0.2311,0.1361,0.021500000000000002,0.1811,0.039,0.23850000000000002
very,0.5705,-0.0078000000000000005,-0.7077,-0.3178,0.8949,-0.0161,-0.0671,0.1577,-0.4983,0.2584,0.10940000000000001,0.3673,-0.1484,0.06330000000000001,0.2083,0.4592,0.7178,0.2277,-0.0015,-0.9309000000000001,-0.8005,0.4671,0.4157,0.1757,1.0876,-1.6116000000000001,-0.7094,0.8377,0.6708000000000001,0.1814,3.9899,-0.1027,0.439,-0.6793,0.11860000000000001,-0.2018,-0.0816,0.9074000000000001,-0.5226000000000001,-0.4843,-0.3133,0.1032,0.13040000000000002,0.3512,0.3759,0.0644,-0.22590000000000002,0.0791,0.1257,0.8394
my,-0.2728,0.7752,-0.1018,-0.9166000000000001,0.9048,-0.07050000000000001,-0.4757,0.4461,0.16970000000000002,0.0724,-0.1631,0.8685,-0.7663000000000001,-0.0161,0.7849,0.2952,-0.7486,0.2099,0.6554,-0.6233000000000001,-0.43710000000000004,1.1854,0.4752,0.0094,1.1377,-2.4394,-1.5619,0.49,1.0985,-0.9737,3.4628,1.0408,-0.6514,0.5719000000000001,-0.1252,0.267,0.1637,0.41100000000000003,0.7509,-0.7792,0.0364,-0.2861,-0.7236,0.6351,0.08940000000000001,-0.3013,0.3652,-0.7337,0.040400000000000005,0.2666
north,0.30060000000000003,0.556,-0.040600000000000004,0.020300000000000002,-0.5762,-0.2462,-0.8538,0.3789,0.46140000000000003,-1.1689,-0.5202,-0.7886000000000001,0.0488,-0.9945,-1.0834,0.6583,0.7153,0.48550000000000004,-0.9056000000000001,0.6705,0.2795,0.0853,0.0945,0.5237,0.07490000000000001,-2.1416,0.5813,0.5779000000000001,-0.0658,-0.43,3.418,-0.6318,0.11220000000000001,-0.2514,0.5589000000000001,-0.8233,-0.3914,-0.4555,-0.7595000000000001,0.2225,-0.5222,-0.2544,0.6754,-1.017,-0.134,0.641,-0.3378,-0.1077,-0.618,-0.38880000000000003
how,0.6894,-0.10640000000000001,0.1708,-0.3758,0.7517,0.0008,-0.531,-0.199,-0.1442,0.1275,-0.28040000000000004,0.7072,-0.541,0.1962,0.9664,0.6052000000000001,0.4092,-0.0316,0.539,-0.8709,-0.2091,0.5685,0.6598,0.1458,1.0112,-2.0736,-1.1242,0.0006000000000000001,0.7033,-0.8261000000000001,3.4445,0.32980000000000004,-0.3532,-1.0335,-0.14750000000000002,-0.1487,-0.41250000000000003,0.33490000000000003,0.19840000000000002,-0.2548,-0.47190000000000004,0.06670000000000001,0.32780000000000004,0.6878000000000001,0.3643,0.2152,0.16490000000000002,0.4176,-0.225,0.6141
early,0.35950000000000004,-0.16640000000000002,-0.3029,-0.551,-0.4914,0.0489,-1.6003,0.1945,-0.8029000000000001,0.157,0.14780000000000001,-0.4581,-0.3085,0.030600000000000002,0.3808,0.16770000000000002,-0.7448,-0.8876000000000001,-1.1255,0.28650000000000003,0.37410000000000004,-0.0536,0.019,-0.3047,0.31,-1.3004,-0.5680000000000001,-0.5012,0.0318,0.5883,3.692,-0.5602,-0.044,-0.45130000000000003,0.499,-0.137,0.0337,0.4046,-0.16820000000000002,0.033600000000000005,-0.6602,-0.07050000000000001,-0.3914,-0.11030000000000001,0.2738,0.253,0.3471,-0.3109,-0.3256,-0.5192
according,0.3675,0.1716,0.4566,0.22690000000000002,0.5048,-0.1694,-0.7245,-0.6028,0.2561,-0.6734,0.3297,-0.281,0.1512,-0.6432,1.0454,0.0029000000000000002,-0.5123,-0.333,-0.09290000000000001,0.246,0.31470000000000004,-0.0206,0.5535,-0.1981,0.1194,-1.327,-0.6504,-0.4637,-0.8627,0.38970000000000005,3.32,-0.7348,0.1048,-0.6204000000000001,-0.25880000000000003,-0.4,0.14250000000000002,-0.11860000000000001,0.624,0.7072,-0.11080000000000001,0.29250000000000004,0.4938,-0.24960000000000002,0.002,-0.4103,-0.6293000000000001,0.7837000000000001,0.1746,0.1766
several,0.9299000000000001,0.0839,-0.0004,-0.0599,-0.5255000000000001,0.5139,-1.2543,-0.0405,-0.4176,-0.378,-0.30970000000000003,-0.1905,-0.2039,0.14980000000000002,0.2565,-0.49810000000000004,-0.2243,-0.17420000000000002,-0.40490000000000004,-0.6757000000000001,0.5064000000000001,0.0594,0.6429,0.25020000000000003,-0.4587,-1.1539,-0.5028,-0.30820000000000003,-0.5328,-0.2149,3.8863000000000003,-0.19190000000000002,0.32530000000000003,-0.9892000000000001,0.45480000000000004,0.7402000000000001,-0.069,-0.0334,-0.5702,0.5744,-0.3889,0.2766,0.09770000000000001,0.339,0.358,-0.1728,-0.6679,-0.0245,-0.6018,-0.8414
court,-0.3544,-0.5518000000000001,-1.024,0.5938,0.5791000000000001,-0.0618,0.729,1.2659,-0.1337,-0.34190000000000004,-0.45830000000000004,-0.3275,-0.5064000000000001,-0.403,0.9667,0.23090000000000002,-0.6012000000000001,-0.9605,0.0089,-0.4399,0.868,0.5351,-0.3755,0.0989,-0.9586,-3.0575,0.13490000000000002,-0.2777,-0.8798,-0.4781,2.588,-1.0412,-0.7647,-0.8367,0.3705,-0.5815,0.9456,-0.0083,0.0514,-0.3713,-0.1544,0.6722,0.5707,0.8054,-0.7087,0.2879,-0.6289,-0.4712,0.13040000000000002,-0.3352
say,0.538,-0.3231,0.6804,-0.4519,0.1782,-0.2215,-0.6907,0.0013000000000000002,-0.17650000000000002,0.37020000000000003,-0.3065,-0.010400000000000001,-0.2257,-0.1453,0.9142,0.6219,0.5173,-0.1694,0.47090000000000004,-0.6987,-0.4692,0.5132,0.333,0.1494,0.2049,-2.5976,-1.1134,-0.048,0.2131,-0.5296000000000001,3.0675,0.40750000000000003,-0.5914,-0.4132,-0.0143,-0.7419,-0.26380000000000003,-0.3835,0.2545,0.0219,-0.8009000000000001,0.4771,0.5813,0.7365,0.6585000000000001,-0.11710000000000001,-0.7765000000000001,0.7069000000000001,-0.1772,0.2904
around,0.776,0.2258,0.4504,-0.7081000000000001,0.1496,-0.762,-0.5977,-0.37120000000000003,-0.49110000000000004,-0.8183,-0.6118,-0.9696,-0.03,-0.2639,0.6951,0.3829,0.0671,0.42450000000000004,-1.2652,-0.546,0.6574,0.3012,0.6375000000000001,0.4092,0.2972,-1.1203,0.11170000000000001,0.4907,0.43660000000000004,-0.40740000000000004,3.6976,0.3907,0.10640000000000001,-0.0358,-0.45790000000000003,0.19090000000000001,-0.3834,0.0608,0.20350000000000001,0.6076,-0.19870000000000002,0.21350000000000002,0.3135,0.47200000000000003,-0.23800000000000002,-0.12380000000000001,0.43960000000000005,-0.9744,-0.7856000000000001,-0.8177000000000001
foreign,0.019200000000000002,0.4524,0.1452,0.1844,0.6021000000000001,-0.5178,-0.3503,-0.0974,-0.8537,-0.5245000000000001,0.3855,0.7325,0.4995,0.7689,0.7446,-0.012400000000000001,0.5669000000000001,-0.5314,0.7943,-0.0195,1.2114,0.1428,0.253,-0.3131,0.20800000000000002,-1.6406,0.8210000000000001,-0.6897,-0.7604000000000001,1.0863,3.6144,0.5159,0.181,0.30870000000000003,-0.1517,0.0658,-0.6465000000000001,0.0673,-1.0214,0.6527000000000001,-0.244,1.116,1.5996000000000001,-1.0037,0.7515000000000001,-0.874,-1.4423,1.5742,0.5113,-0.1671
10,-0.14750000000000002,0.5556,1.0764,0.0442,0.4922,0.3118,-0.6212,-0.28250000000000003,-0.4555,-0.3776,-0.2338,-0.7571,-0.199,-0.1938,1.1632,-0.5638000000000001,-0.49570000000000003,-0.19440000000000002,-1.4987,0.13490000000000002,0.5652,-0.153,1.1222,0.1102,-0.5906,-0.7489,0.7752,-0.63,0.18710000000000002,-0.1648,3.7478,0.5115000000000001,-0.1991,0.46900000000000003,0.6934,-0.20720000000000002,0.4742,0.22970000000000002,0.5396000000000001,-0.127,-0.2933,-0.155,0.8954000000000001,-0.3317,-0.4892,0.2982,-0.1024,-0.3635,0.12940000000000002,0.188
until,0.20020000000000002,-0.3282,-0.4086,-0.7944,-0.0162,-0.1564,-0.8774000000000001,0.7908000000000001,-0.726,-0.8414,0.3272,0.1608,-0.39980000000000004,-0.1656,0.9778,0.7536,-0.5877,-0.1812,-0.8642000000000001,0.2144,0.9359000000000001,-0.2756,1.1309,0.13040000000000002,-0.2636,-1.5425,0.447,0.11370000000000001,0.8108000000000001,0.509,3.5276,-0.4036,-1.1329,-0.31120000000000003,0.1051,-0.11280000000000001,0.3617,0.7376,0.389,-0.4525,-0.29,-0.6103000000000001,-0.4128,-0.2089,-0.9279000000000001,0.5238,0.07590000000000001,-0.8187000000000001,-0.4646,-0.0908
set,-0.0877,0.1114,0.15430000000000002,0.30510000000000004,0.4066,-0.017400000000000002,-0.1521,-0.1359,-0.1426,-0.050300000000000004,-0.3216,-0.3296,-0.7775000000000001,0.5423,0.7143,0.0046,0.4277,-0.744,-0.37610000000000005,-0.633,0.5159,-0.0784,-0.2662,-0.164,-0.0154,-1.1246,0.1597,-0.3793,0.0697,-0.2545,3.6201,-0.0589,-0.6494,0.10260000000000001,0.0587,0.1753,0.6365000000000001,0.46640000000000004,-0.3462,-0.31670000000000004,0.0111,-0.032100000000000004,0.34640000000000004,-0.1579,-0.1996,0.5082,0.4181,-0.384,-0.0819,-0.51
says,0.11800000000000001,0.21130000000000002,0.2908,-0.0212,0.782,0.1733,-0.7311000000000001,-0.425,0.34540000000000004,-0.0468,-0.008,0.518,-0.7143,-0.31270000000000003,1.125,0.5228,0.47890000000000005,0.1583,0.46740000000000004,-0.30610000000000004,-0.2391,1.0427,-0.0252,-0.057800000000000004,0.6194000000000001,-2.1845,-0.31170000000000003,0.1252,-0.0438,-0.35050000000000003,2.4963,-0.2538,-0.2958,0.004200000000000001,-0.5125000000000001,-0.5127,-0.2611,-0.0782,0.7458,-0.1233,0.0776,0.9618000000000001,0.3543,-0.5899,0.5495,-0.10070000000000001,-0.4096,0.17500000000000002,-0.32730000000000004,1.0853
however,0.4383,-0.1578,-0.12390000000000001,-0.11900000000000001,0.1466,0.3516,-0.4586,0.1834,-0.6325000000000001,-0.11760000000000001,0.5989,0.34600000000000003,-0.4617,-0.5854,0.4187,0.5349,-0.056100000000000004,-0.42460000000000003,-0.45330000000000004,-0.3264,-0.16920000000000002,-0.3131,0.44620000000000004,-0.13490000000000002,0.3684,-1.5683,-0.3022,-0.0937,-0.048100000000000004,0.377,3.4781,-0.276,0.065,-0.8147000000000001,0.1966,-0.29860000000000003,0.32,0.2416,-0.5128,-0.10400000000000001,-0.11610000000000001,0.0256,-0.2985,-0.0033,-0.2046,-0.0791,-0.3846,0.1237,0.1464,-0.15030000000000002
family,1.1636,0.9039,-0.7428,0.4927,1.88,0.9285,-1.0429,0.0134,-0.519,-0.6876,0.0083,0.5075000000000001,0.5179,-0.7558,1.0241,0.1761,-0.9189,0.2146,0.1923,0.1956,0.0044,0.40700000000000003,-0.38120000000000004,0.5129,0.1428,-1.4652,-0.5519000000000001,-0.8362,0.4188,0.40790000000000004,2.5335,-0.2079,0.0888,-0.1097,0.5207,0.0263,-0.6552,-0.14250000000000002,0.44070000000000004,-0.0478,-0.2328,0.1721,-0.16840000000000002,0.6012000000000001,0.4716,0.1134,-0.9603,-1.3412,-0.021500000000000002,0.0492
life,0.5149,0.8881,-0.7191000000000001,-0.5748,0.8566,0.5247,-0.3179,-0.20170000000000002,0.1794,0.52,-0.1153,0.593,-0.3468,0.0526,0.8715,-0.0366,-0.056100000000000004,0.0852,0.0362,0.234,0.0732,1.1394,-0.1792,-0.0342,0.6998000000000001,-1.6516000000000002,-1.106,-0.4414,0.7704000000000001,0.2396,3.1823,-0.0205,-0.056100000000000004,-0.6992,-0.19540000000000002,0.19490000000000002,-0.364,0.053200000000000004,0.2622,-0.29050000000000004,-0.6488,-0.057800000000000004,0.2165,0.40240000000000004,-0.1413,-0.0155,-0.1199,-0.9984000000000001,-0.0663,0.1312
same,0.24130000000000001,0.39490000000000003,-0.0534,-0.133,0.661,0.7261000000000001,-0.2972,-0.44380000000000003,-0.38730000000000003,-0.040100000000000004,0.2482,-0.0375,-0.3017,-0.1928,0.6211,0.0809,-0.381,0.0575,-0.5805,-0.5516,-0.09860000000000001,0.0098,0.13970000000000002,0.11040000000000001,0.18330000000000002,-1.6027,-0.643,0.08080000000000001,0.302,-0.189,3.7301,-0.008,-0.20650000000000002,-0.44870000000000004,0.2495,-0.24430000000000002,0.3664,0.1268,-0.125,-0.1178,-0.0608,-0.0009000000000000001,-0.11460000000000001,0.2798,-0.4872,-0.0146,0.051500000000000004,-0.1394,0.0876,0.2058
general,-0.2354,-0.169,-0.3201,0.5115000000000001,0.9548000000000001,-0.9530000000000001,-0.2469,-0.222,-0.6494,-1.5415,0.4476,0.7803,-0.7994,-0.5526,0.0679,-0.111,-0.6716000000000001,-0.30010000000000003,-0.0679,-0.4596,-0.0714,-0.5414,0.0057,-0.9848,-0.6474000000000001,-1.5912000000000002,-0.2497,-0.7468,-0.6346,1.1995,2.8192,-0.2701,-0.738,-0.9588000000000001,0.3272,-0.43910000000000005,0.0315,0.1968,0.2204,0.8124,-0.46,0.6958000000000001,-0.4404,-0.67,0.023,0.0734,-0.8310000000000001,0.44530000000000003,0.1532,1.2093
left,0.46780000000000005,-0.0359,0.4106,-0.44380000000000003,0.5894,0.2296,-1.1107,0.875,-0.7234,-0.9159,-0.1799,-0.38280000000000003,-1.0384,0.47200000000000003,0.23040000000000002,-0.0396,-0.0795,-0.5086,-0.7297,0.1925,-0.5322,0.6547000000000001,0.2587,-0.12890000000000001,0.2156,-1.4202,0.6365000000000001,0.5283,0.2833,-0.0733,3.2336,0.2242,0.031,0.0152,-0.289,0.5468000000000001,0.0112,0.21480000000000002,0.9649000000000001,0.1051,-0.2066,0.21380000000000002,-0.456,0.2359,-0.2747,0.2122,-0.0975,-0.5135000000000001,-0.11460000000000001,-0.848
good,-0.3559,0.5213,-0.6107,-0.3013,0.9486,-0.3154,-0.5983,0.12190000000000001,-0.031900000000000005,0.5569000000000001,-0.1062,0.634,-0.47340000000000004,-0.07590000000000001,0.3825,0.0816,0.8221,0.2222,-0.008400000000000001,-0.7662,-0.5625,0.6176,0.2029,-0.048600000000000004,0.8782000000000001,-1.6549,-0.7742,0.15430000000000002,0.9482,-0.3952,3.7302,0.8286,-0.14100000000000001,0.0164,0.2112,-0.0361,-0.1559,0.8658,0.2631,-0.7101000000000001,-0.0368,0.0018000000000000002,-0.177,0.27030000000000004,0.11030000000000001,0.1413,-0.057300000000000004,0.2721,0.313,0.9277000000000001
top,-0.6651,0.7836000000000001,0.7445,0.6855,0.648,-0.5219,-0.5203,0.25720000000000004,-0.1378,-0.6609,-0.4302,-0.307,-0.8862,1.4324,0.3165,-0.4429,0.3027,-0.0132,-0.365,-0.6294000000000001,-0.0053,-0.1942,0.6366,0.3765,-0.9873000000000001,-1.6796,-0.31420000000000003,-0.054200000000000005,-0.907,0.1704,3.4054,0.38220000000000004,0.1358,0.387,0.30860000000000004,0.2361,-0.4158,0.6613,-0.0228,-1.0259,0.0367,0.5265000000000001,0.1776,-0.24750000000000003,0.5083,0.187,-0.13870000000000002,0.2599,0.006500000000000001,-0.19890000000000002
going,0.0142,-0.1801,0.2348,-0.2504,0.2682,-0.5489,-0.7444000000000001,0.5203,-0.2857,0.15380000000000002,-0.5592,0.1042,-1.0179,0.0106,0.9528000000000001,0.5181,0.7862,-0.201,-0.2882,-0.6574,0.0183,0.31930000000000003,0.3446,0.2652,0.7206,-1.8699,-0.2538,-0.003,1.2203,-0.9202,3.4057,1.1351,-0.5841000000000001,-0.12610000000000002,-0.035,-0.2994,0.0315,0.3388,0.3891,-0.43,-0.8526,-0.3175,-0.0892,0.5318,0.0438,0.061,0.24760000000000001,-0.1668,0.0616,0.6993
